{"sizes": [784, 30, 10], "cost": "CrossEntropyCost", "biases": [[[-0.3334087674721744], [-2.138287370007478], [-1.852810264776344], [-2.2909840134573924], [0.5673088391055556], [-3.4140859881344117], [-0.5717261848066003], [-0.25615753111693434], [-4.053028878467818], [-0.5192774219737258], [-1.3515861622297027], [-3.8652005102435725], [-3.794059427746872], [-3.4864568108928804], [-3.801609716995266], [-0.3225628013157712], [-3.063745165225672], [-2.4128606869370195], [-3.8342028153142116], [3.5555200747700515], [1.5759374399992037], [1.3906209046717581], [1.2265948953644448], [-5.168951269473954], [2.242223262491942], [1.887488244292506], [-1.3469764555993746], [0.6538502491040618], [-2.29209868917194], [0.9214158129505554]], [[-9.862346327508002], [-0.9945182601778206], [-8.777245322529348], [-2.9871550616650544], [-5.566646159472832], [-1.6131124133942647], [-11.236539089218068], [-5.574546045370702], [-11.973673501850428], [-8.564898009144516]]], "weights": [[[0.007185195325144783, -0.0383002074827996, 0.023402320325882128, -0.00792716843247637, 0.014961533144153225, 0.029028894935898757, 0.0167881293399826, 0.04524253994778569, -0.01935211787496464, -0.0072571496464532235, 0.01734514512456025, -0.0033511141128897415, -0.12462570968023727, -0.17570840185351816, 0.0177149492315244, -0.005020144358899479, -0.017703634131407183, -0.01646908254793817, -0.0028308456560471435, 0.030936356505046274, -0.07700998100877812, 0.003238102261029409, -0.030669900779880934, 0.014004431439907525, -0.037035459529389185, 0.04682453933570536, -0.006910066923428772, -0.05598717073052084, -0.06153720457635797, 0.056827519734174714, -0.014190813245166104, 0.03573790636342664, -0.03479356969350748, 0.0011448293486140643, -0.0767924101935434, -0.3223416086615907, -0.25853601181900404, -0.03738672222271938, -0.10725530555725073, -0.1290674999548128, -0.28790364171786637, -0.2278936887126366, -0.12608163374410347, -0.155767786296531, 0.060924726245725785, -0.003267378487949277, -0.0959488184766433, -0.17578208089297712, -0.09123745059467263, -0.12581802087660526, -0.21812929670314782, -0.21557861450679922, 0.012574928695295489, -0.002770008342364194, -0.05761958327767267, -0.007743529044185403, 0.002419342326894538, 0.06716799321998376, -0.025479677695028815, 0.005782036739171572, -0.07457386679192068, -0.013600409879972603, -0.1002261147066244, -0.37886685035081347, -0.4375381285381033, -0.2336550034671632, -0.28836674619532016, -0.3305475328887877, -0.5914367732884757, -0.2751755134963623, -0.045093467099889345, 0.19089808314176188, -0.026207938600632325, -0.2553358230953701, -0.396346451062354, -0.4251736155029216, -0.2853457548465426, -0.27960610391047025, -0.43428001603124833, -0.16363686104487907, -0.03248596614313586, 0.03510891401299591, 0.06941524120338687, -0.08347605843924331, -0.013839268803573248, -0.00045526276014625026, -0.01102040537707908, -0.010363823792609216, -0.0062507216801457426, -0.005435070170321131, -0.19430612701237102, -0.5935104893759048, -0.8775494400077868, -1.1293723443951467, -0.49681757619024114, -0.5716142034703262, -0.4916863656708538, -0.670184005274765, 1.019652753608393, 0.9608745599366415, 0.5512241210004711, 0.4625735255981141, 0.3233171145613879, 0.674473306003105, 0.4912111518707226, -0.21828788574613106, -0.4864164485229526, -0.41285210410266165, -0.12167763857607834, -0.009188233254057092, 0.04009335292569288, 0.024279820744850272, 0.03732548550551571, 0.009199289158804087, -0.0124918770757761, 0.04603821720101986, 0.07770142441667822, 0.435175487314716, 0.14476669903172862, 0.4226823598891264, -0.27687266972455216, -0.6476681997065332, -0.15188542126164323, -0.004429383036519314, -0.867703683151554, 0.7421771613678617, 1.5296383650558667, 0.0920796189029113, -0.26827381404486517, 0.047635287692886094, 1.7816372440957204, 0.6989570402428708, 0.19300331909717763, 0.8229547559841621, 0.4385944884367212, -0.37461595308908074, -0.013286288954702635, -0.0712163617822002, -0.046842177686442624, -0.07107390789704772, 0.015280280503807472, -0.026313081427142677, -0.004177701055273794, 0.15880871927640347, 0.5514144951300435, 1.1480967263833315, 0.6163108197950673, 0.6969148219004949, 0.0062634143356540516, -0.6322985870499396, -0.17763041180079614, -0.15333654061179341, 0.22314002763900845, -0.444505578202569, 0.5439514508526822, 0.496465870723248, 1.300777527405566, 0.15825489259489497, 0.9195380960420199, 0.3112906233804576, -0.9376595936778291, -1.3720331538522164, -0.0024173574038848958, 0.2747871180456306, 0.2024446228266095, -0.05261772720691353, -0.029345336018366853, 0.016969725946499852, 0.01605822321934265, 0.05368250735308892, 0.11901201784943197, 0.12993785809169836, 0.7439735789316697, 1.2253864937285164, 1.0539451115217473, 0.009048064905664347, -0.5248253371758179, 0.6716446385609663, 0.7762031862945973, 1.1983813216165855, 1.06415702589212, 0.11440460513162252, 0.17328840818887953, 0.4327862357822898, 0.7848219394117655, -0.5336467134712929, 0.42477644464648723, 0.540488265255762, 0.26885178049385666, -1.0976723348923845, 0.13946302037018082, 0.07505073516046164, 0.6712787049544235, 0.24330201443769547, 0.29685477034368424, 0.0513298273686454, -0.00741471002015475, 0.016507364139426554, -0.01861521401527494, 0.5001489950402643, 0.8213746664934357, 0.7660313602049751, 0.7361296691393988, -0.25625516457720177, -0.10819754418038134, 1.567267167706355, 0.0009455351781443049, -0.16348083441876698, -0.4229663171520509, 0.36424501005478943, 0.43430703229540757, -0.15174957109602819, -0.17159191373234786, 1.016539028630026, -0.8314943903282582, 0.6730098118305161, 0.39568750404545944, -1.2245765652588083, 0.6858910723987052, 1.1083593613776996, 0.44083445039361413, 0.49715940729067065, 0.19663962262996304, -0.046724800257182786, -0.020430636848356797, 0.05451128249930139, 0.14806631198862288, 0.2845030974291248, 0.5897232298634707, 0.3428664988668259, -0.45805093356065024, -0.08133253357264614, -0.2844022093523586, 1.2027749916967874, -0.38489264552194447, 0.6742061156054808, -0.21153285132414765, -1.1673081256141764, 0.4476927883571001, 0.6308924410209841, 0.2704263622275588, 1.0615142144508316, 0.053595714129100955, -0.4163268469139775, 1.5387411282829904, 0.9973548711630392, 1.5656591575017336, 0.1549318882635827, 0.884703513540257, 1.180390035146802, 0.18751098370904465, 0.020905230148200147, -0.02696544032100186, 0.040381797573274744, -0.07342619259724137, 0.08222149032958113, 0.32044961106549985, -0.12765458095566798, -0.013617535099535533, 0.17412801907740344, -0.29284446113891616, -0.2689179746789243, 0.406147893537556, -0.13527018482419903, 0.5409059393609011, 0.10933116672588672, 1.2277355071737581, 0.8190491071531278, 1.6271413433691788, 0.7091783813821844, 1.6130984242671151, 1.0565657658720673, 1.615444663526654, 0.6562627602148755, 0.029816988994960093, 0.005547340212670406, 0.035021233969336846, 0.7770609638204476, 0.11594699968316813, -0.032600799273605166, -0.04865878004455327, -0.09742023230431042, -0.011667100478753472, -0.17309785601458583, -0.45054925036537125, -0.43701777304017203, -0.921283922001416, -0.6995721767999191, -0.7307628587735167, -1.3524084789417035, -0.689687280734427, -1.2590481319882394, 0.20984505838239725, 0.2693012591595965, -0.9389812880377206, 0.6181441761823475, 1.1019487149120044, 0.4077370487983039, -0.3844877195118325, 0.7995954268596989, 0.35096628942761876, -1.06210841733234, -0.07572654201242805, -0.8043439161564124, -0.3492832010533883, 0.6531644225680651, 0.20064768125337615, 0.008431646101253699, 0.023549332469421338, 0.007704993023681923, 0.0006344820962838221, 0.0874101469963285, 0.020589032758524237, 0.28295248719452554, -0.7661854437256721, -1.4806003172750415, -1.0710497424565844, -0.5737605119245611, 0.3195715692108776, -0.9455162487337211, 0.7965611172339336, -0.87675057091802, -1.697288302922723, -0.6613694251993628, -0.15530200873915323, 0.7908035162929669, -0.7610211784837607, -0.35331367380338835, -0.10475532676913034, -0.9195811831270335, 0.28199206453588227, -1.9663970591403943, -1.9353969825181763, -0.3483379248253932, 0.1355080577269375, 0.05367757049801361, -0.02701040241976534, 0.015897656132217487, 0.049331849449433654, -0.20088423937154515, 0.42228698441284057, 0.30733793099200835, 0.5395640334800382, -0.613297122523675, -0.5986551229801361, -0.9139776484927151, 0.42107400469723294, 0.6141741679083089, 0.6736871003014634, 1.1886067099067514, -1.1171173228162623, 0.43153259314966236, 0.7891276456415545, -0.6919931117677032, 0.002006430407666187, -0.05101273068343958, 0.13970206361800316, -0.13167547858357698, 0.43499518570890944, -1.1568222131160957, -1.902124515273693, -0.4974568393548418, -0.11489010453958612, 0.006190414014767258, -0.015650880368423752, -0.02054824533675964, 0.027578807745865713, -0.4876594717420454, 0.5567395074715036, -0.2019190259818667, 0.6492983642942077, 1.6436971382642767, 1.8502768638218272, 0.3103576311295845, 1.0532272744821705, 0.7932841879238043, -1.2804593274429392, 1.8496432822718196, 0.5206778713903534, 1.0101519141036064, 1.4161516907349048, 0.03364657388099869, 1.1121071103652589, -0.05623367077667424, -0.059848088567113475, -0.03247775722462082, -0.7207459198549044, -1.1838055879759333, -2.0911253105705354, -0.2966132140034512, -0.040606719469981324, 0.007962291711902587, -0.019866632244342822, -0.013060271200242115, -0.031873596255178126, -0.3070512998679653, 1.1477273918194735, 0.32969806918193734, 0.32251253949821335, 0.6314163500960793, 1.8716443635540225, 1.5560724907965886, -0.36627556284093826, 0.10422822526289746, 0.008237569733534058, 0.12955302294413618, 0.38045211101029697, 0.9364103684954432, 1.3638347653562244, 0.6180597978995133, 0.2805635890092795, 1.374374829617927, 1.268172968189033, -0.5822582837812404, -0.5091590261966433, -1.367939553513668, -1.8123486268895428, -0.231975549727877, -0.03541172906763274, 0.04472590116272379, 0.0004565531852915626, -0.005172140391228973, -0.06730678761534342, -0.08778360677813925, 1.1514580237671515, 0.7494936419575522, 1.1475009214209353, 0.14927534017513783, 0.2281646229420144, -0.5569844002021548, 0.030459223616253348, 0.04181054869008226, -0.792938689434205, -1.4458971826559532, -0.861975820468801, 1.2969670588877058, 0.3780007263965667, 2.1244436419070234, -0.3535860447518062, 1.0379958605198303, 0.7155492446754815, -0.5531350616784577, 0.10154131114908282, -1.7807604699931798, -2.2224469510050144, -0.5088771563758331, 0.04030199504814958, 0.045317818603835776, -0.02988657263557429, 0.04948145749784524, -0.08536925820934571, 0.11164529472123709, 0.8995518604959358, 0.8600922206265198, 0.9230529827444144, -0.09118541899213183, -0.3454247168204938, -0.7686477787556089, 0.31595593247927606, -1.2869208413909534, -0.414724270901532, 0.18744775953161738, 0.2981673336863336, 0.6222675478178822, 0.021677124504715446, 1.0080195380448116, -0.2698064737582887, 0.28089586439456893, 0.8983362802945034, 0.13048013149208887, -0.06802278784423987, -1.9832733032119902, -2.097992237137721, -1.1532091349613507, -0.5447457214207935, -0.03363995750571078, -0.031967193163144655, -0.015395107684278366, -0.012070572929961536, 0.23875787351444508, 0.7728141195766377, 1.290563723569647, 0.9319838430839078, 0.9438561690626253, -0.3120603732421682, 1.4831944425142531, -0.0630314186506623, -1.1776924404475606, -1.9875636779863362, -0.9956912001419371, -0.8010299287660044, 0.6507380133801991, 0.3746214604018445, 1.084889876568665, 1.449717583217117, 0.2682848978223711, 0.34699759599095314, 0.3355278673734796, 0.05861295193029278, -1.2400683168282631, -1.3580408156487311, -0.5799112190631696, -0.14237391046573522, -0.06179763245738587, 0.018615026378513682, 0.0029478068573414824, 0.030092685316094603, 0.19848006808356597, 0.6043460880995873, 1.210372024031671, 1.2676255650319161, 0.05253049744332797, 0.4456715863134004, 0.6322944082124444, -1.496865405082544, -0.3527587301254788, -1.117619749932868, -0.033297376576674344, 0.6838889559053813, -0.27934281724060844, 1.0700214918731128, 0.5032578678494384, 0.3246868169197138, 0.15557580525592035, 0.10344698559018352, 0.24284665549999085, 0.1895344858047747, -0.41878906172866537, -1.5335412361991418, -0.5259520322901435, -0.07329835815795602, -0.07439455662474438, 0.03678173661865217, 0.06278381385256647, -0.05740293912490348, 0.22322500812071364, 0.6970804676673821, 1.669130903997802, 0.6128931029587357, -0.1094735809269803, 0.013624419817621147, -0.5716223999810043, -0.8557005654241694, -1.4731150894114595, -0.3193466594299317, -0.09946671944947927, -0.6393376270279555, -1.9975572879778967, -0.0512569415366842, 0.07026421456255605, -0.15174359061641418, 0.7884794656604768, -0.5822418920122251, 0.24482867505869782, -0.5693846545462935, -0.30434635789164827, -0.6164164181987163, -0.24939313089098453, -0.08159578770820673, -0.029444438578603495, -0.00951464940904709, 0.035647365039893436, -0.10095388411873624, -0.18435537755394385, 0.46625075126129817, 0.6946377980152909, 0.08469852256005214, -1.0530635530583432, -2.1852958066233295, -1.1079064958389064, -2.088427090333301, -2.3483308038384734, -0.7745187187365061, -1.7318809911379707, 0.3501600971098661, -0.8940037542710583, 0.3252405353220739, -0.3556010254181027, -0.5443146021434941, -0.3263215853956541, -0.04782897347802428, -0.06829415475849432, -1.1204527653461496, -0.38584364695305967, 0.3649430968888499, 0.3358108057886477, -0.02261715705824004, -0.019148479125230638, -0.017569936023092394, 0.004657779108037039, 0.07480596116453503, -0.24028889578509824, 0.8810034088232795, 0.8118158297192233, -0.8925511138408958, -0.9117087811891305, -0.6887226072540106, -1.521106210750055, -0.9955465984239402, -1.2838859923842794, -0.7644033767725001, -1.6584702353777052, -1.0890243894226022, -0.8477757879548894, -0.5135018282846102, -1.923649766415631, -1.1922162532120044, -1.1852550671152133, 0.26757013620524267, -0.6998368470563928, -0.09087928406455549, -0.21496580783942532, 0.0033979298406930764, 0.00012805907411538421, 0.016404427999630433, -0.06393342531217781, -0.0030676983361392378, -0.018811600876345178, 0.09832035165770127, -0.09225901391278442, 0.44925541236461897, -1.0778467880483678, -1.0559172039672475, 0.34451141214026704, 0.2842526374753872, 0.8225370693785069, 0.28478825156859094, 0.0018261096983635166, -0.48092552543422457, -0.6132200031833143, -0.9197563817085489, -0.7784139551552, -0.49374336762866333, -0.6375716825809827, -1.4769239522168192, -1.5204291302697615, -0.3272331961384855, 0.10907247730726886, 0.15423606850637483, -0.12828262134524598, 0.13568186129649756, -0.085294147342732, -0.009534395729413673, 0.027754985598306543, 0.045090277100027276, -0.015381123444838449, 0.06765711773915709, 0.26071782846599645, 0.10192109056512588, -0.6107737944941177, -0.1897528037374676, 0.7828835624542927, 1.106963852833331, -0.08103475720068522, -1.1128919158335402, -0.41628596768911014, -1.4854239398090665, -0.6599931623079155, -0.12459627591492807, -0.9078522264153153, -1.7415916740851334, -0.6689748322521605, -0.8687402412592534, -1.017256107091012, 0.11833744161428261, -0.14637989017814926, -0.3950559439214767, -0.40157587272975476, -0.06031517758249197, -0.021626050267750933, 0.0004848348625808777, 0.0024029449286802167, 0.005955203512384892, 0.01237557519915722, -0.05233980356730206, 0.2809800366821322, 0.8137689185744124, 0.8890253367879986, 0.9262668270390227, 1.268812655173263, 0.5694123482253458, -0.7052228889553033, -0.17147944714997784, 0.8482899661189462, -0.2457634437797945, 0.07458628573160794, -0.0002847472412553298, -0.16972478639503907, 0.11774096148081398, 1.335075106141334, -0.15906601482949384, -0.19694917839353088, 1.415134322273674, 1.4657134506410254, 0.47922982385464463, 0.21210671143080537, -0.17152426743496002, -0.13447866952269452, -0.06229664202798259, 0.012817330182072307, -0.005994337278204367, -0.017515507239280807, 0.020326974553816, 0.10905074320192831, 0.5402085091958377, 1.1968242467933643, 0.9977626684836253, 1.2327186436055406, 2.019477814646795, 1.9358311061143425, 0.5550317040930672, 1.2058847882576689, 1.4778028465679092, 1.1972710248973475, 0.8730624575300705, 0.6110981845714665, 0.9574613973873748, 0.9237405971833338, 1.3468626932300527, 1.3982216815561765, 1.2176983112998137, 0.8428932177240697, 0.3301449243490376, 0.15689244646205125, -0.030296087854237323, -0.036181621029252035, -0.05182570465435243, -0.014414560809575108, 0.014010556242040407, 0.0023817151209964524, 0.0023002069252132003, -0.0459612513734987, 0.030385198655591073, 0.12251496792255352, 0.1201941915569276, 0.14177881389554278, 0.4893962028090915, 0.8015838048527013, 0.596305336412446, 0.4248816841883587, 0.6230581746158368, 1.0139654998817553, 0.9704842815299461, 0.7981180351526074, 0.5468362578739437, 0.45205919591525034, 0.6052348531230277, 0.3106805174272478, 0.19847520225566412, 0.2209639800319579, 0.12035441144587034, 0.033833529313070355, -0.028448465997220326, -0.004571238670089896, -0.017467851340495243, 0.0005697383358526611, -0.04470030273289895, -0.019320117133245305, -0.013439344389845356, 0.0037794207820440622, -0.023626056472061115, -0.0672164261328311, 0.07124850694081121, 0.06871641894385076, 0.022881678415084428, -0.009280278007777348, 0.10731659349352236, 0.019281994368765078, 0.045842925103609815, 0.06153268261554275, 0.02105359735721194, 0.06514126866200187, 0.03650472200539877, -0.0019421695640109223, 0.05275249828251469, 0.08559141053345472, 0.01943111916559256, 0.01796054515832855, 0.04303843362271124, 0.016814767597877017, 0.0019295984960702724, -0.00547726857511284, 0.07933882588088778, -0.06958975103797907], [0.045989050855572484, 0.04077495810587712, -0.016534516729688493, 0.009263203252534375, -0.01723771741380106, 0.048837978914512976, -0.005013337651803446, -0.0076981191875375955, 0.00026497372189446163, -0.036614339818617274, 0.05699500199042544, -0.031001242861904168, -0.04901797983201915, 0.06486240821834888, -0.023113937563014504, 0.02057008024457109, 0.019263710070392678, -0.0068539243829713, 0.0025581087106539067, 0.018284927759731413, -0.07053426410525063, 0.030505336424302473, 0.033229186555762825, -0.02993129916000157, -0.03574192382718477, 0.048850574058295744, 0.0397441257932696, -0.007832072933166078, -0.019348313192097597, 0.014733906588529591, -0.028997901995696882, 0.04252571123622295, 0.06401654265277064, -0.03825737664761103, -0.006913973621900389, 0.0028778199309082856, 0.0014971422130018786, 0.017072555647641218, 0.02873831549996731, -0.018489010384379903, 0.02451423211371752, -0.005127150001329244, 0.000740612824632836, 0.07224871328619138, 0.10799460662798896, 0.05374327490164205, 0.0383306316996529, 0.01891734483284934, -0.04449569334237888, 0.044828066154797314, 0.03438134654676361, -0.012976728358572675, 0.013159285689374153, 0.001694573238542765, 0.03820570655355038, 0.0181532439469142, 0.011817870842801406, -0.037975828047189145, 0.038622532662768036, -0.01742756633670086, -0.016911536987704215, -0.05047808200575444, -0.03276460178605552, 0.008303424856746072, -0.19961582429398023, -0.32610593211344546, -0.18764880457405286, 0.04382452468788881, 0.2346423757132331, 0.3895225495956087, 0.6006408498956763, 0.7358999012491144, 0.5302613181956066, 0.1678603669504141, 0.027058659629737494, -0.12263098454074246, -0.13995745578227334, -0.057965862352410226, -0.010263348353863536, -0.040463237987254624, 0.08337805321935643, 0.057826236583699495, -0.018643247966451816, -0.008230376206284383, 0.04464502222647878, -0.03953115135915956, -0.007467774670594367, 0.0008676671629912732, -0.02701519972842838, -0.4290600986111626, -0.39421539502539316, -0.515344259092633, -0.9894689662727324, -0.6245428431869221, -0.3131069817663659, 0.18110263829600529, 0.05094421086872333, -0.13742798222245936, 0.7853135214331007, 0.6581517369961856, -0.015584469585523628, -0.671939397453562, -0.5538036295080813, 0.5151314776632312, -0.2362632621617596, -0.47850601182900826, -0.07782285707667748, -0.028491157172561996, 0.19786724695765964, -0.03088363153633105, 0.057354319770133035, -0.023108241868273396, 0.030626675639489623, -0.022526329638292538, 0.008741698858531897, -0.11019669360111924, -0.0714325151235388, -0.43059693360554185, -0.25357127599954526, -0.18911373457055636, -0.1427426240968639, 0.14229805156916728, 0.4235562080907548, 0.27412977406132233, -0.6089349356086847, -0.7323912448208174, 0.5320966676789626, 1.0378183482225145, 0.08457689342762949, 0.136143060880858, 0.6358644253672208, 1.1966911870613026, 0.6080716763757842, -0.909268112234555, -0.5650137556732452, -0.45033678198743454, -0.7288395073567216, -0.08751523059209886, -0.016208137461265898, -0.027122087624328654, -0.012179829261376505, -0.052670441525316726, 0.028372200009471063, 0.0319755177497262, -0.3130741077976823, -0.9641641530699167, -0.36794659106287897, 0.29891474404634955, 0.23052233369279526, -0.24069583761525443, -0.4355833602565307, 0.15438820218638752, 1.1471024337413396, -0.35126909783741983, 0.18201316532680697, 0.38436180367252737, 0.3533906584471071, -0.35554049077421973, 0.08215135772065772, 1.4742606951234891, 0.08039003515372671, 0.45146274262618064, 0.06429406394331473, 0.01636123850387007, -0.5074687805189289, -0.25622476130905836, -0.03997400782543321, -0.017776835422987323, -4.8992478896810155e-05, 0.017239298123206608, -0.07413280914859836, 0.18169564239611397, -0.48815684234486884, -1.0961133979831585, -0.21964278398722994, 1.1602528235112428, 0.45891003471859965, -0.6119057142802998, 0.7016989859226594, 0.16465822051283166, 0.33667797210466777, -0.18576952920015344, 0.9749184498885299, 0.6470286137764559, 0.7715750005967382, -0.08794963607886902, 0.0782744227747518, 0.042954067437049825, 0.3625322391318429, -1.0459903654356373, 0.4671673400025018, -0.47869544765496014, -0.4751841246741098, -0.5780563861625458, -0.22994736052800674, -0.0068820858805367984, -0.0710078909616767, -0.005484649973619789, -0.14298895957707958, -0.13049397268164697, -0.6830998245963195, -0.6482487726319752, -0.6636754489969461, 0.5423574160448873, 0.34270142471654297, -0.14001175973605678, 1.099420355338105, 0.19201969822100207, -0.7428157172069195, 0.8472171524081372, 0.2595330459279253, -0.4413431627648233, 1.0868937433162398, 0.1416946665650896, -0.4020077371173831, 0.23080528680067763, 0.7082187555952493, -0.7124956284009647, 1.311102836487547, 0.11088779287605455, -1.0273548778013104, -1.0820733621757996, -0.09119334990329607, -0.020870280666704887, -0.03908946907438338, -0.05871813297731384, -0.25710644215724643, -0.13522147892381794, -0.13593041020834215, 0.16418209499079295, 0.4503473640026949, 0.039966089389812894, -0.6350267822637012, -0.20848366737021445, 0.20983092353500662, 0.831901132000934, 0.3419361549277286, -0.6722632114830618, 1.1471539102599222, 1.7087494148725078, 0.23146731053114647, 1.3442580758472495, 0.051415916548692944, 1.7456037523300896, 0.2625318752815827, 0.1884075118260846, 0.5700425153952887, -0.289294533460206, -2.0724592783550855, -1.2431371998602188, -0.331380214763348, -0.16671994875972518, -0.034906762470700084, -0.003854303833483943, -0.06386498695122923, 0.07673217353142932, -0.07356035314964045, -0.34012083337001187, -0.2032873488135755, -0.022509489884755873, -0.5972677586436227, 0.10652813828950594, -0.17520979531292954, 0.1388075960641403, 0.32603458250703277, -0.7076591588415919, 0.07754288587116763, -0.1806301652459658, 0.6671596506064177, -1.0734122137708595, 0.42062958677738316, 0.36623274168860326, -0.3978124685436659, -0.12438717281260125, -0.8244660988181484, 0.5691265313169269, -0.9813919382013848, -0.8275072804898855, -0.14870987653727386, -0.02904686380298507, 0.009258142966324651, -0.020693205356888136, -0.036016223137467614, 0.06508544528300735, -0.39953329071502197, -1.0427548757247693, -0.24173835785124068, 0.19717451975499492, 1.193897157796001, 0.14787521514288848, -1.0888164188203564, -0.35794352191398693, -0.6589596966638757, -0.6455425733621174, -1.2987704669996663, 0.6951676425542714, -0.28136247807741427, -0.07006014560162893, -0.4923962815227669, -0.3495417480937512, 0.05864327865996085, -0.28572739403081104, -0.2181575808908011, 0.5648061811111813, -0.24751767338562428, -0.45244743068182436, -0.115268664009542, 0.0005860934077206493, 0.022851986797312547, 0.03739118270575267, 0.01537580346163655, 0.0829880159602629, -0.3625318259969715, -0.9169540314711473, -0.15113530210428636, -0.3157946409946618, 0.19973974188454963, 0.005254340543803218, -1.5906162532895518, -0.08729755638342057, -0.5565539940555159, -1.5003934887332584, -1.7645996838197617, 0.7951733567664385, -0.8327220138725753, -1.4710484468320513, -1.3048754378458358, -0.9349904414765382, 0.16460579774615297, 1.533840335482216, 0.8383366023816481, 0.031492122625271804, -0.1298288260988342, -0.020303280920921655, -0.08512397036065616, 0.004204625023865847, 0.014471136440302197, 0.02679773436199325, -0.05865052338454305, -0.04411735458300082, -0.36348134483384215, -0.6466273621257751, 0.023369696225867678, -0.8921646467311534, 0.4546418860989733, 0.3168170726976233, -1.9010693255171576, -1.588018232454452, -1.156008902268244, -1.6233961011325566, -0.3487982683778359, -0.0561653363250142, -0.2741600499129712, 0.4244692442757359, -1.71025746157495, -1.9887326726590644, -0.4085354843649638, 0.759354515908484, 0.44085844968657334, 0.3202329111784594, -0.057615357967355355, 0.37149968569148206, -0.02893591504124981, 0.009242713665979676, -0.024359618756071, 0.012754691881967555, 0.012542149523957824, 0.002409789651097197, -0.07624614572825027, -0.19003304434358576, -0.8156570702650173, -1.2668405290625755, -0.9034537914779689, -1.3461714036381365, -1.5941395090934987, -1.1818846577229445, -1.3297219940943112, 0.08352949798929192, -0.718740049582607, -0.7976278975950986, -0.8924765243455242, -0.7762305498470634, -1.6458927369022336, -1.6613312420194812, -0.7382893783830792, 0.11405463694345323, -0.5802941607873381, 0.20698873013101063, 0.015616781065543334, 0.5843700392858022, -0.03311605354796421, 0.017137074974624876, -0.024305462321834576, -0.047039941747695706, 0.027126403052252453, 0.003122814697390111, 0.2891651589791153, 0.3825775909733231, -0.9141773803620071, -0.48818596360751626, -0.8331647465278459, -1.4107814875727023, -1.7591565217460512, -0.7765961959067084, -0.9359957892381859, -2.3298058271824673, 0.028146067190774338, -0.3187782883519029, -0.4419985992104506, -1.938766456490294, -0.8772888655647865, -2.1813838206688922, -1.0408681167022584, -0.7317632699031147, -0.250977293054147, -0.3258533405175763, 0.06393551755382439, 0.4669622697366715, 0.12675299177724003, 0.03710944006256777, -0.03205034536268815, 0.02960967583948726, 0.005157330867470071, -0.16785022273570274, 0.24610868844909872, 0.5367600280669781, -0.9573115666636941, -0.40142353803396935, 0.031858530587748235, 0.07937791320110896, -0.2282222594340444, 0.362467245213763, -0.8496913850906332, 0.4891761394696396, -1.1142531384181642, 0.3176926617381345, 0.22901763973997655, -1.480852092763361, -3.3708481991626766, -2.7117606635436204, -1.4990119303358445, -0.4456322990683464, -0.3937438588087565, -0.5283826749588242, -0.24810152659243004, 0.22241318306144023, 0.16698537807947628, 0.02777709332137855, 0.0027182875908636516, 0.03984959006708136, -0.008428054950867124, -0.24295775668510733, 0.4941593179609314, 0.5382794499873638, -0.4838466320364547, -0.25032954948074093, 0.07951318000427098, 1.2704164393822863, 0.4499089371782203, 0.033725522807000134, -0.7398918229245026, 2.5784384109248433, -0.15740131895024376, 0.4516638287770794, -0.9608518680866474, -2.379998564801382, -2.184743449240372, -1.064958070960745, -0.2529461939589462, 0.21059187505794572, -0.841578694013977, -0.060986003639686426, -0.31643914625802577, 0.4314416900152708, 0.047294438131348294, -0.010429185893829875, 0.038604734940454785, 0.06386587977955488, -0.02269742808159233, -0.5690029151341098, -0.020377797042521413, 0.12256640031090683, -0.19697018608071207, 0.14575928579165073, 0.7472783865111511, -0.05184873926695299, 0.07932960551191266, 0.5972997287194973, 0.8353926382026229, 0.45971831228238946, -0.22327807820250534, 0.019856145569331355, -2.058328235160865, -1.9483894345616468, -1.029827636720982, 0.4679583883463491, 0.8527102031964805, 0.7132605771102832, 0.756965470896813, 1.0058114610399942, 0.20143224460482628, 0.815936970538106, 0.1899166468852569, 0.0063636002032601705, -0.03624836144753977, 0.050472055589913946, -0.04005421224492307, -0.7875203229768126, -0.8378029118847351, -0.3530035886674421, -1.0476333847499388, 0.36992495661732927, 0.5178550959552486, 0.8427451189638581, 1.6485149034432722, 0.26119184413146485, 0.7426378885780269, 0.13835718118282844, -1.0868788122048905, -2.275508452876536, -2.3334880693706137, -0.7293008025559611, -0.005631379598176145, 0.722284765726175, 1.3095504475242028, 0.646962513168889, 1.2307133088813784, 1.5026969387515794, 1.0728785521644706, 0.8190949187578153, 0.29217683876672507, 0.06661798493401357, -0.031789055098095056, 0.001451671894533988, -0.037890097205951635, -0.7318999629230741, -0.48680562919011056, -0.9105814885106455, 0.859938706362647, -0.6071801330029014, 0.29743763983797894, 1.3703352286009056, 1.9536991901652263, 2.2480301688738282, 1.4310473476127652, 1.5014792091051374, -1.6430373697753269, -1.7263550724459642, -0.4771093193057662, 0.5649700710609653, 0.13730880955471478, -0.08499432358207731, 0.6755366804890613, -0.5855840577832799, 0.009786804746945377, 0.21463632677786337, 0.6859877056596815, 0.526656690281756, 0.04328004701947597, 0.009439490831740128, -0.049617198141067055, -0.034723160113431746, 0.010451364858484337, 0.34267716791832165, 0.027074562943870187, -1.236888297426193, 1.4736202234859352, -0.31625145946340044, 0.9707253048698763, -0.44082293838055125, 0.7157170247449488, 1.5361036685807385, 1.26018830029555, -0.4204838384303009, -1.7367585088521167, -0.3581207149002151, 0.982402411064623, 0.7870778115664158, 0.4906460597687732, 0.08166855952835562, 0.3557790914143588, 0.5564492762072826, 0.001640507224993876, 0.7051891781909848, 0.6755520966121444, 0.3646097849197721, 0.04120224294109078, 0.01911941249165474, 0.012760947490656887, 0.038582529832448344, 0.010671847696956642, 0.7384261832735032, -0.21948809546945355, 0.8056814380030278, 0.07733960596920929, 0.3370007182359286, 0.3368802821712864, 0.7760153518548569, 0.5084394435287222, 0.31024452981208167, 0.8715040039201216, -0.3423163243060569, -0.3425547447662159, -0.36344002089172533, 0.8622998056624271, 1.1150839780818742, 0.40567860579379367, 0.9266483036225018, 0.3409787397405263, 0.4208566041093912, 0.5670084497577624, 1.0199476389632578, 0.6626166826837058, 0.13958243031776824, 0.07422482773268232, 0.035146479992051255, -0.06169254066987466, -0.027815580157547613, -0.02564863645348107, 0.1460833986489368, -0.11883627869574669, 2.0052158526825155, -0.4244670199440604, -0.1210413585531987, 1.5095587577970715, 0.284752787420599, -0.8938910020103896, 0.020076843243225423, -0.7401211039409819, -0.7147637107803867, 0.007602015062671525, -0.7632296867730033, -1.1501296799299676, -0.2337402607875919, 1.0338957592390923, 1.6224704631471776, 1.3621263524553575, 0.7118363880417858, 0.14973748054617986, 0.10499882947156133, -0.017585100476836348, -0.06937679426038414, -0.05242886374274662, -0.013871917478821065, 0.07088453393153916, -0.060938582489157934, -0.017179900975143658, -0.5814176182143211, -0.5910300960587911, 0.8249875136662216, 0.4043058327955841, -0.20389171996273348, -0.34054162321312453, -0.15231233254898993, -0.26976361931267495, 0.4757739757865248, 0.45392448336150715, -0.46182556231702176, -0.7668918013227896, 0.25407059053592707, -0.420605742060153, -0.6120426715034916, 0.09676286493972383, 1.0191648901457397, 0.22910558434079326, 0.010327210284015424, 0.2967911704866577, -0.023567463924342457, -0.0893778886023277, -0.03642585513819081, 0.0568779037597419, -0.020755885083458953, -0.013938768705373621, -0.019750437396973197, -0.05099689203082023, -0.3991887480505591, 0.08352600053332514, 0.6185209292853998, -0.41370675642616234, -1.0383625951529656, -0.872937208347228, -0.5478704742035337, -0.9263858017727417, 0.2519975927553989, 0.4099703489806587, -0.659635762397791, -0.5738495229668634, -0.38822227743967835, -1.1656236777181066, -0.8250527629965677, 0.2893491013543932, -0.657364627522494, -1.2307343133761512, -0.19740244866183126, 0.388888997507469, 0.13311318598272692, 0.15084129851068392, 0.061940110253335456, -0.013037766881368372, 0.024440895783037007, -0.024335128472074426, 0.047176722418304826, -0.01620017252455096, 0.0030863241061181482, 0.0649797950573628, -0.02584753390798899, -0.39999555277884313, 0.03930389607973459, 0.8718494740560732, 0.4139909680204661, 0.2959937298144395, -0.03692290214256154, -0.33622628854897074, -0.22081991811360938, -0.8173938285415435, -0.963421158751802, -0.8706970935110572, -0.8526870423927163, -1.6701403883171078, -2.0553772841038653, -1.394664810576629, -0.5635583335088412, -0.11161156924623038, -0.006932477840076988, -0.031078979384914347, -0.001980270701912748, 0.022256062990799158, 0.030887521607344728, -0.008966586319373613, 0.007928118361988416, -0.004125024468128895, -0.026157395416036525, -0.04005270509701711, -0.03182617984092448, -0.05175574996125061, 0.14579492856704257, 0.1736471467532887, -0.25232023593799613, -0.06310909438038814, -0.2123252726134396, -0.0976226246813027, -0.09170188368649489, -0.24212553187851843, -0.11190306582753891, -0.21506390648509036, -0.2380819402821668, -0.10417378384550217, 0.06343096488376458, -0.23221550173432756, -0.16549803466915894, -0.025948260670855133, 0.07759538349404854, 0.014078418587520895, -0.033091139945848176, -0.056715199692763445, -0.019937572666773325, 0.005549693208571696, -0.009336462647963199, -0.042792458171105295, -0.0479433960376072, 0.046627947895002325, -0.03897993193731809, 0.03476298088941892, -0.023601728037361006, -0.007111520801653438, 0.02156115971047289, 0.019001463218839013, 0.004548910233604069, -0.04624051236885989, 0.029384610024374053, 0.004594314504179868, -0.03255946183300375, 0.020621013779653898, -0.014550818745886446, 0.022494693801204876, -0.005179109666478773, -0.05465815798834904, -0.025475952704357135, -0.013902554489728786, -0.05085336068407293, 0.032253118546744085, 0.028382793073024187, -0.06607266773435326, 0.05940491858870388], [0.07821766152833762, -0.033832174058895256, 0.014573928793045195, -0.004349706364907647, 0.02418352617091759, -0.011003132897729556, 0.03974920296012332, 0.038801000982113476, 0.04337448482976959, -0.01718697536553667, -0.04783886202159939, 0.005135528197562723, 0.009916812054992468, -0.027448744565684646, -0.022074620567633214, -0.08369692863807592, -0.03495415967447903, 0.031531921723564206, 0.06369261038258431, -0.0043544482970708535, -0.003740393683581168, 0.09317386706164694, 0.01155132791333711, 0.047124064354554906, -0.0214718270117345, 0.038779494174063615, 0.026537734934187616, 0.0020222602320818656, -0.036176711243474484, 0.00835726811688359, 0.04818826285700575, 0.0011831284996081887, -0.003998861499803804, 0.08104822630254019, 0.01954540159048611, 0.055698186001112544, 0.04397270290848148, 0.09137144958111171, 0.07317737070100078, 0.26822880372883423, 0.04007351370168958, 0.059242362394751245, 0.09447551967641055, 0.03546563933589632, -0.3150308793504288, -0.07586544526759624, 0.008472659141515553, 0.09933163339502754, 0.12949369636367047, 0.08040168506312599, 0.009184097549786266, -0.037492818717008006, -0.046403073122973974, -0.015732089747202783, 0.019701199611743662, -0.02148646842360921, -0.03277631965275403, -0.01724116786767319, -0.04455062094324997, -0.0259035489536557, -0.013127672090874674, 0.04590209681704537, -0.031583686662824885, 0.0427459761472712, 0.11214894650732309, 0.4592427133901068, 0.6960620908059258, 0.3760557271683966, -0.058984962837115275, -0.6124292431373447, -0.13322784531238693, 0.5399050809124695, 0.7987162836207633, 0.7204229336238573, 0.7196078540856972, 0.8110625135111412, 0.6559438321948403, 0.4985657420147159, 0.3418026351958817, 0.15030412197953602, -0.0032047533469533843, 0.03813602335556029, 0.09115921238177702, -0.016833355251740185, -0.04371412639285328, -0.0849536399937341, -0.017563209202419952, 0.056910925190566015, 0.02934140858074573, -0.07777439497270647, 0.11309269120445849, 0.10113554255916203, 0.02528157561700524, 0.24382731478845585, 0.364421603112553, 0.3487412616642545, -0.0994005357556946, -0.31569181526688567, -0.637897031209395, -0.5544688168174783, -0.05996068624675037, 0.08260651786454647, 0.8531539852708044, -0.08729054091811002, 0.32986759168957486, 1.061824474243741, 1.1862890094066705, 0.6534443282921064, 0.24716722148186748, 0.008562996682955308, 0.050733888271671045, 0.014331652332207396, -0.060376093948146144, 0.07178685711162812, 0.024261512217444006, 0.015728979692438475, 0.18118512523744393, -0.18985185748319666, -0.32009833213542405, -0.5832967062694702, -0.9711486677713806, -0.6047984577178356, -0.03145090642929412, -0.291208109598527, -0.9244642246671929, -1.7007277625270791, -0.4480972382872657, -0.26249352174390733, -0.7186583207328897, -0.5069592222089171, 0.21992988517447437, 0.015821626530378236, -0.007182341412337079, 1.0288864126559758, 0.804754880629711, 1.0514286603564567, 0.9332127217788635, 0.434026164611604, 0.06086324604386093, 0.1229030199224424, -0.027141778427749362, 0.0516837885621937, 0.047268099541954114, -0.004398610301500269, 0.2699388244533351, -0.22216319100279144, -0.9920413093592578, -1.2305574241925887, -0.9180934426439248, -0.47136705029613996, -0.568932156352784, -0.10174470264453439, -0.4916999094395911, -0.6812644658442294, 0.003589840758644508, -1.1794618022736643, -0.36381064935144897, -0.646579253124587, -0.9440268523993175, 0.7092054152954664, 0.24360372639941724, -0.9410746667532218, -1.063012259563626, 0.3762536661363758, 1.231000374552536, 0.7663968625307307, 0.38350415732302207, 0.22330496579986514, 0.029112623514525565, -0.017465918941234792, 0.0037787274924207088, -0.025915310899499517, 0.43238081056758565, 0.015449388422273759, -0.9636672166977186, -0.35462049066121115, -0.07612619308947277, -0.7880940745784074, -1.037222824681639, -0.32559819281547, 0.32337293118559096, -0.28443094812064473, -0.7510916122584084, -0.3001637928251988, -1.0284703957424481, 0.43838070945968083, -0.46966462965271066, -0.43074354215892763, -0.09273425984825832, -0.20945565135950056, -0.560172954205711, 1.4893616551507434, 1.6950733687613653, 0.9635604500523397, 0.2371155920717476, 0.2055124496420816, -0.017009853264721687, -0.007162987273241496, 0.0650239961919488, -0.11158308822258371, 0.23470522634574062, -0.04292210922711168, -1.225177087867248, -0.42986007594904224, 0.18737636137098632, -0.3677510243682749, 0.2866401475573543, -0.5650837234033752, -1.2619970860119507, -1.6334625018877602, -1.3735439136440548, 0.6546911897502243, -0.6479150447390194, 0.05322823935279387, -0.9603754662527817, -0.4873292592504159, -0.5850027390973258, -0.7716812080074541, -0.8991201438390586, 0.4530700875836635, 0.9015904990151409, 1.1662293993317217, 0.35370223892778874, 0.07739444557350891, 0.0005857435615503558, -0.0032102940308844584, 0.010589045656316645, -0.23085256221076572, 0.11749366076657615, -0.46436203046685065, -0.8388728284965233, -0.38137130096761385, 0.242501831753866, -1.1022507642685964, -0.6903850883473153, -1.6566787546219561, -0.996732991869758, -0.6109616148170306, -0.5118362479922901, 0.6015353534277537, 1.4795587124520726, -0.6787565160433284, -1.2077496221073833, 0.5034128140725445, -1.203638903498113, -0.0562473875914154, -1.5600016581737723, -0.2950823452043357, 0.8042117294179031, 0.9914400438873393, 0.44669181650310913, 0.044279493476017465, -0.030188180360478576, 0.0030690198105076867, -0.09675849311774781, -0.46119421844702846, 0.031688103046428946, -0.43006111114581125, -0.02992505412687214, 0.5787718000318417, 0.18308897979353883, 0.7376417589061977, -0.5118038334819259, -0.7076426957392156, -0.7652816800973761, -0.16325230467700702, -0.3381979248979499, 0.47262324714130877, -1.7246868682805416, -0.7207969113461491, -1.724288459562544, -0.5911975813837808, -0.34515660026365397, -0.08693122063429051, -0.5078054051487125, -0.6522287084937299, 0.13048671155092437, 1.136921190574262, 0.4276012080704308, -0.04697908416897375, -0.0803815060243477, 0.046653450404036165, -0.31902677328077084, -0.4442856073080936, -0.1963281406827022, -1.2437758416006741, -0.8949805175873508, 0.013676262365315555, 0.08007070534464777, 1.182517947769339, 0.13050731565031196, 0.2777813918710761, -1.0987029527303338, -3.027845999352623, -2.073134775236016, -1.074414357849099, -3.116043280407338, -1.5091669343797809, -1.6044375312938497, -0.9332592057937102, -0.834419602502958, -0.6696423529081977, -0.4240507303951705, -1.1529542276959608, -0.7577234037205743, 0.01719910046534892, 0.2494545402031722, -0.035796765255635854, -0.03834276504949766, -0.023980641463901952, -0.054385727487850935, -0.26098428877663893, -0.01652092103790189, 0.4805612036337497, 0.316595090796989, -0.24884013419167333, 0.05510189428081435, 1.9088036345892774, 1.498814501911593, 0.6543953612100704, -0.5598351825012046, -2.1491820768211194, -0.8989386350181076, -2.3062918086391626, -1.9884276453479188, -1.8643430939270105, -1.0356411769868459, -0.30361481512806815, 0.3697785457021364, -0.5299305506463441, 0.3595900919230466, 0.304265108689753, 0.9364330686859923, 0.5384751809383833, 0.3749622972515728, 0.04868049290361548, 0.028025133600594776, -0.06579341967009804, -0.1280225675198002, 0.09980523823808737, 0.6067369047693414, 1.3478604259799922, 1.5288207680539894, 0.9546586792833169, 0.6980899417085172, 1.2154009140652484, 1.6168945773214878, 1.5914356621746952, -0.5682435132394618, -1.4880952880179674, -0.7528940467771079, -0.09948477112997246, -1.465431355327672, -0.07923681938064413, -1.0004435931178834, -0.27491708408754206, 0.8646753343551352, 0.6826936285389816, 0.4573194894148132, 0.8830025940364147, 1.0301897770668305, -0.4261376325741645, -0.04373283562888129, 0.018893709389008254, -0.033497884360828865, -0.06996971309627148, -0.14307481281092901, 0.12140276613825515, 1.255314681298562, 2.0977908710648685, 2.552048958909938, 2.109594186665984, 1.6173110295460575, 1.3734241118386064, 0.7479860163907752, 2.7179543477564794, 2.669799067431805, 0.38582450516987926, 1.0639114558526135, 2.334620318873969, 0.9587319096145527, -0.25704266052659874, -0.8413684956620658, -0.6224204826162629, -0.6566364084351377, 0.95193192740885, 0.45133396195288855, 0.3156243034229129, -0.8353669178361348, -0.2529802092934374, -0.007175798451711814, -0.08286037710363515, -0.029408663661037233, -0.061700677647670024, -0.03474932567596779, -0.08127840577590102, 0.23077722503082554, 0.7824404302701907, 1.2907353438914797, -0.12562590061219073, 2.3160368505480906, 1.571164702149866, 1.3672916300602092, 2.511995072068716, 2.8824341551755417, 0.14252367728172527, -0.5125425131307656, 0.29530627919369307, 0.4893357248274537, -0.22577893528092172, -0.32772337738866436, -0.27867783437035504, -0.14456352775141226, 0.6442370321017409, -1.2097317766560658, -0.34658158329804395, 0.11432724802867586, 0.2290640971832247, -0.21329065936664152, 0.10099063599480841, 0.03735764668322063, -0.06371393703151516, 0.04285671597512838, -0.7052416486622922, -0.7837097778569505, -0.7371459106797775, 0.7009236874951112, 0.19290137110738598, 1.4364404639268027, 0.481419804063363, 0.507157375179243, 0.08522337089548095, 1.817158989395695, 0.04340556286637116, 0.35341711851035357, 0.45150234002343137, 1.394399737244212, 0.4791848936952332, 0.18376843416811278, -0.19419133010602685, -1.285203764971762, -1.6306173671614013, -0.9349984426306913, -0.4005403454485191, -0.987582911809956, -0.01328367927421388, -0.5803562728415338, -0.099737749992104, 0.0708182293221903, -0.023554836601296647, 0.06907885533362532, -0.7888285697898761, -1.8663547147093291, -0.5731076435773356, 0.6886627978401176, -0.11085676954924185, 0.5288445749471996, 0.9460894419042437, 0.9252816857526689, 1.5773794785342228, 1.5369748393758216, 1.1946650838158246, -0.5617023779345418, 0.32352794411488667, 0.6250563682938183, -0.41159591854099853, -0.19969465672697878, -1.6057151478742733, -1.4873603080236903, -1.185436165283441, -0.06489877655213624, -0.6933258436258466, -1.2721386545072277, -0.3777211595323145, -0.3320866517671417, 0.00755273220966308, -0.09519225132142044, -0.030700176011045875, -0.05259147555038679, -0.6328468968223342, -1.8950346965784572, -2.319895172817858, -0.2583680277828613, 1.1427584647740332, 1.0537028681910545, 1.4604091095951648, 0.4825410444693416, 1.0410583030961487, 0.2025175565927935, 0.6565281156009605, -0.3709458026919926, -0.011108220843629339, 0.10367230161040202, -1.7862930582503695, 0.02453729411804766, -0.8151210431775668, -0.23892177411233387, -0.19682871525893483, 0.21553505671359066, -0.14172608353562977, -0.8240856713421975, -1.4857571789812867, -0.3976516819718515, -0.02956664355946604, 0.021025528548498904, -0.011836099088587699, -0.008465200820223812, -0.49808447204441175, -2.1806285031396935, -1.1208886228349626, -0.49834392011159845, -0.08714471271310202, -0.4783865802626411, -0.2639211830033937, 1.1066634289823312, 0.49742540595363227, 0.41049556636460494, 1.461085871880193, 0.6700409132169239, -0.12481432728225661, -0.20674623361462735, -0.4897408450877769, -0.40122600817263565, -0.701328500963724, -0.44741561199920854, -0.7087599034226882, -0.3072759991955383, 0.030064064494743442, -1.5818611919920753, -0.9472991941785853, -0.3237060605845679, -0.014209887969500958, 0.007299557329995573, 0.00407450008984024, -0.018659174069565406, -0.5617564404213482, -1.7091701438863391, 0.2609436477401106, -1.8338052961739317, -1.9437480577485422, -0.6882263328551202, 0.3355308453309463, 1.1236368404303405, 0.5819163204251135, -0.500245445426594, -0.28563730335609, -0.916734432619714, -0.36029265846768854, -0.3791977881169634, 0.08148332517024047, -0.44761466754610213, 1.4704528615487007, 0.6036148386836864, -0.8182949413771005, 0.0028428739863754194, 0.9738393357312641, -0.10862722336692664, -0.4243285487123393, -0.14751684426037598, 0.06319685713691803, 0.06291994632421533, 0.006798836544948108, 0.010092006454831798, -0.41968607151580345, -1.363339528789309, -0.47276555877623955, -1.0881008919491315, -1.0596735954813368, -1.4298404975475232, -1.0986968751871535, -0.8178230757503135, -0.04474080037726761, -0.0016201743936584525, 0.017594540720457456, -0.327577783257355, 1.4639637165749801, 1.0414726152370242, 0.42610386565055947, 0.16762804831049727, 0.8598607179655589, 0.04073218520569411, 0.45818435184031164, 0.4396198078492815, 0.755725312816039, 0.3753401461932031, 0.2151338387473958, -0.01473918714468783, 0.10400748108210074, -0.06153001913281594, -0.025257846119946414, 0.06124418786146668, -0.31745174578340934, -0.3130488287588317, -0.46636821818753144, -0.38587775377589684, 0.1727023184856336, 0.08708951045028876, -0.10109391429350492, -0.40464417205443487, -0.3924593350626686, -0.27030255838783046, 1.0244259924160313, 0.20458338668763243, 0.2550268816405426, 0.2749029077922029, 0.7652301530740434, 0.19389586996306768, -0.1526773477422552, 0.4978998316886991, 0.07565019182805503, -0.026393373563882105, -0.0015324855784265446, 0.07406018510845132, -0.06114681787396904, -0.15612078792188416, 0.04838553447766934, 0.0058234430209493865, -0.010253700546058474, 0.01773982365490064, -0.1432872774970037, 0.18338544719291883, 0.37099770968082413, 0.5997330792601134, 0.19090909079187734, -0.09574126617552045, 0.7749688320815358, 0.3827005488275081, -0.5540598531169448, -0.15308742716640233, 0.44772520775127056, 0.5753701126665834, 0.959215327749678, -0.6951551218315146, -0.0012748156823946474, 0.6818252286940637, 1.208460276369528, 0.05863207607656815, -0.32520576277937313, -0.3252385692039155, -0.2462256708179529, 0.022039350125244692, -0.00725316377930864, -0.022261492581140283, -0.02486178861540975, -0.031082438742729257, -0.05549611877792605, -0.0015634510947485714, -0.09933301263368331, 0.5322052634311382, 0.46638037618828204, -0.050398684708158836, -0.6352419544483244, 0.643848794605617, 0.9939938658461036, 0.1367738081504305, 0.019034207283361713, -0.4321559290719897, 0.5242390265200938, -0.06016339084195002, 0.22635773642688414, -0.2112805585377666, -0.7157779930266884, 0.5701638814110619, 1.2121297532690032, 1.1051840464145302, 0.09924125055770475, 0.2571018277358674, 0.805074136952829, 0.1491830404217281, -0.023809152333931462, -0.019758202843574678, 0.039908591844439616, -0.06338567513703101, -0.03563628113622651, 0.02470500995345027, -0.08408260084913738, 0.5021460484612208, 0.26510873924783085, -0.10062338322516962, 0.6421987057106646, 0.15929320041216338, -1.2924686529407141, 0.47906745695611, 0.9075921564207066, 0.8664581240902606, 0.14501264300098646, -0.5908749700308904, 0.30788120323891915, 0.15253871278191236, 0.2707181450335901, 0.7274787449556901, 1.2724305478243394, 1.3959167418259448, 0.8940858780849312, 0.262787173466223, 0.5974290220560057, 0.03705579386728446, -0.02431159849148805, -0.025200213982272797, -0.0011202640611904745, 0.01829446307225297, -0.029563687174587377, -0.008313329104456854, 0.009291784387207179, 0.0037248170553389856, -0.05716462773892635, 0.5371608440877932, 1.0306917881537676, 1.6193948247840884, 0.7372507983336255, 0.6344531598665479, -0.18114957704329177, -1.6237095732416127, -0.6485545282904627, 0.7814165624939418, -0.04495135956316923, 0.2780779032596564, 0.94058024023239, 0.3069870342792045, 0.638574386519828, 0.9893180405688119, 1.1103746306327982, 0.5800276837283844, 0.37986490615850826, 0.05047473785185433, -0.08041378397442467, 0.01839588871064792, -0.022930658447094066, -0.06112514547538884, -0.00249131707656168, -0.02639519467665124, -0.009459076524577933, 0.030049595990160074, 0.019699730766221026, 0.07853933285077769, -0.290199897832033, -0.0007967456701308114, -0.2677671444898308, -0.66904764385737, -0.12299769007499298, 0.46650963521334615, 1.0370138035837306, 0.5996260866742565, -0.4897874993588867, -0.46119256257249597, 0.31939555349571913, 0.015313977367814029, -0.35765761910460975, 0.46088203365652514, 0.6027136796917194, 0.1403325063292542, 0.012994173227449602, 0.022585491210118616, -0.015588442843195617, 0.0027723788087865237, -0.004992102570758399, 0.016444923628077035, 0.002432992475639583, -0.02208227001852567, -0.02250744909717582, 0.015813172834010708, -0.02895168478671408, -0.01632476672241816, 0.07629050921729155, 0.07943072521382329, 0.029459316086669532, 0.07187144146930963, 0.170027274835774, 0.20620523563916626, -0.017492866904351177, 0.11241867889920402, -0.1083152247507908, -0.3340885674277037, -0.09698930922952603, 0.02230171517932286, -0.12041876674313015, -0.06535998641748549, -0.04164252613357952, -0.043345647806246175, -0.07087044135030782, -0.010736135155706508, -0.016005771555692223, -0.05345578870033596, -0.04954751430278785], [-0.051367346393012325, -0.05556343468069568, 0.03169488219872066, 0.017352888049516853, -0.038136002109790255, 0.013483077954992647, -0.05346770092660609, -0.025971098861847224, 0.03599887996140965, -0.04582843799207759, 0.039941389429734166, -0.02390912161585282, 0.004770350265452023, -0.005132736632719293, 0.03243133645108393, 0.00491036542209401, -0.02240532325378231, 0.0033116252797158914, -0.013087429390671432, -0.06308955312586188, -0.019290814415936528, 0.03677743879676931, 0.029290572367471485, -0.04037614014954223, 0.0372375474630879, 0.006245632505683824, 0.008846563153124468, 0.01258355085855861, -0.024709470610514355, -0.026633823691494262, 0.09267875504784233, 0.026872545050500688, -0.029086120957696367, 0.020372710487739178, 0.006728555237199936, 0.007768703699751087, 0.005974237390312425, 0.13743904505251195, 0.013082944284416247, 0.08883607823532123, 0.09571776333276691, 0.05074538115345781, 0.02522336812432589, 0.08094453853478818, 0.10984415942088073, 0.12185786208664025, 0.002573449098650204, -0.003368518832064487, 0.02475638690447099, -0.018566815662953328, -0.06844355696432992, -0.02989226052020974, -0.007261431081897264, 0.046267760642608784, -0.02562142259159658, 0.007760040867815454, 0.06900690165319548, -0.06456459970985069, 0.04721030266146771, 0.05702450480070347, -0.036678496931889924, 0.06751943914627394, 0.059234757404758503, 0.11075284008506635, 0.26625159414216887, 0.41312885602231364, 0.5332090274953231, 0.23617150482742813, 0.3832980364756799, 0.5084644999264426, 0.40955436467950906, -0.016001969258212328, -0.20869732842986305, 0.056969669307112974, 0.420819830650307, -0.016670660936628622, -0.04765421898715315, -0.02609472129603109, -0.014914731627091258, -0.0037465584030261386, -0.05007203952872719, -0.03187990580415757, 0.015044133675441607, -0.0043489245180116974, -0.009396166504399136, 0.010283847176897834, 0.00010769652246349549, -0.0763531537712273, 0.049200233412805106, 0.03426540030870299, 0.07525668457441552, 0.0929207131195602, 0.3231150305040579, 0.7331423188700514, 1.1081542705414678, -0.06442648825260583, -0.5260412196430919, 0.0444673654158589, -0.5727525381514581, -0.3740583347764037, -0.8103135101756306, -0.5056049438285335, 0.3719700108669154, 0.7003578060241221, 0.5657739025245615, 0.39704215238885054, 0.48084375315116273, 0.5197877640988072, 0.24664276651411368, 0.0013140676246770758, 0.04375982521901412, 0.0012720684639148838, 0.017566281515786014, 0.0033625308664048206, -0.008165281761913383, 0.0054553009760287905, 0.06379976814484495, -0.09558531427305554, -0.14547454762826595, 0.006548841349867999, 0.3797219959949837, 0.7484547005015093, 0.7369275074113193, 0.09274167079732341, -0.1883863874929832, 0.28192959921515437, 1.0555926731392171, 1.3702728462005769, -0.5306972923828529, -0.8687388256968372, -0.4020841014339739, 0.11774725190831446, -0.501606831715512, 0.5076868860881334, 0.07629244192103095, 0.43750577742376534, 0.5828925402467283, 0.26494958104832, 0.028530242530922106, -0.02228370389570786, -0.008505466195151471, 0.018924367302732024, -0.023229367473145635, 0.03265745146148247, 0.1458345877674984, -0.09333374031807015, -0.08164742727515224, 0.06786869881467619, 0.5177992389533723, 0.5954156993943025, -0.3674501568552003, 0.5930469743639367, 1.0253343561513417, 0.6986893533626422, 0.37015059310218795, 0.9392927824933248, -0.3332735805382025, 0.8014279807570308, -0.14895629781040798, 0.8387581727427055, 0.3702903276746999, -0.7072015525116344, -0.7467157327063821, -0.8340580354294391, 0.17481541647940435, 0.07274774659295241, -0.0026192092549535205, -0.00602529640272883, -0.07936138443958637, 0.026125761532789338, -0.03394274777483494, -0.0335102018622492, 0.22139842579171012, 0.38371651427839204, -0.08270926310925177, -0.4719879874282684, -0.660198814087123, -1.33895457662011, -0.5937459059363384, -0.12359519042840354, 0.5353959367559709, 0.9463176125419206, 0.5452174598040584, 0.9370139336860043, 0.24126599959202888, -0.011749330797423178, -1.5085341453745995, -0.537132697060179, -0.20724502307089415, -0.1394293710027142, -0.2067966143427701, 0.231438022291724, -0.01821691302245186, -0.02695023507900734, 0.0822983453530369, -0.018005511319676294, -0.06523780829744842, 0.07314154527873545, -0.053872592201244296, -0.17593192878203004, 0.1085296630925471, 0.6756375153718184, -0.5580901927836388, -0.8907596186372297, -0.20107774499203784, -0.026599723575525425, -0.18643753224658574, -0.02979602555364644, -0.16335757425120423, 0.05217363026379617, 0.5382267615475654, 1.372565167995045, 0.33998151290815404, 0.01817158369262959, -0.1462515073292696, -0.008399381003692374, -0.8104391226162305, -1.032386133409865, -0.519408846473685, 0.3271139807582264, 0.6127275994043504, 0.6609275353579152, 0.14806351550977775, 0.05648863519576168, 0.0038063674385805497, 0.02965503347456602, -0.05156974653089242, 0.10737079124212265, -0.08222607088452444, 0.2842857246315209, 0.39687157942443135, 0.2622332106257982, 0.17666124068340877, 0.09621190854647033, -0.313366578529399, -0.13617712744350316, 0.7511467465940765, 0.7773538215629426, 0.7035080598214071, -0.2038485345170862, 0.2769805249148295, 0.1941375887369606, -0.3457235469481378, -0.7535947947289509, 0.2474352310468034, -0.21783052562756283, 0.6505387058769833, 0.06346275408715212, 0.9557749081801972, 0.42974065013707036, 0.3071156281837064, 0.038157169005789325, 0.021062001009759402, -0.014785535779234001, -0.07256204812728315, -0.15273660715799373, -0.6381236444701334, -0.11254668627850363, 0.5439544330384678, 0.8136161427952875, -0.1431069914785067, 0.26711058325706794, -0.08061362576950619, 0.04066348441046151, -1.0503081154182545, -0.7829705867883853, 1.3260865906141295, 0.744147267039323, -0.44424347993533103, -0.3570755267720973, -1.1598556441591852, -0.5780608805332962, -1.2257295216287953, 0.3586767808411578, -0.23980508474086826, 0.00296390802751592, 0.8509742794249967, 0.736556179336835, 0.22342931920106196, 0.01651134059076995, -0.04507626213679318, -0.09754206187123726, -0.012628502085994676, -0.30074789064557683, -0.32668208100184615, 0.24013782933189073, 0.7035962584189854, -0.5449879406154073, -0.6283858142960468, -0.7411415914355497, 0.3688592824270793, -0.5394754422791546, -1.087388082472783, 0.6800605907589403, 3.694762686103794, 0.9662567961782309, -1.0961701118308143, -1.5243062740185993, -0.4832479391675201, 0.45173311235159547, -0.530837859803246, 0.5931937245758498, 0.2821061676023542, -0.10579942597537728, 0.01666875236016294, 0.40734751655113105, 0.11965029763030709, 0.039643829705299234, -0.0053667236308742, 0.03157028353886861, -0.06842945797403374, -0.11099214666137384, -0.21934254432387032, 0.5177909988496998, 0.20687526200646447, -0.49616250126335726, 0.9297143268137541, -0.049219761923652, 0.36832663861971743, 0.43903566318818726, 1.7755023957929137, 3.795623951191593, 3.344317348614895, -0.034950461953555174, -0.6883864354009404, -1.0487014134383676, -0.5020825495659286, 0.09359871293606313, -0.2811025847246322, 0.13517716639256042, 0.2860804601112869, 0.32539474501744536, 0.5612097340592456, 0.1124909932961255, -0.0002501382069779206, -0.04677347493052286, 0.044448644945685796, 0.014573763280586412, 0.006768072522106528, -0.06359017231358827, -0.2747541301343625, 0.4369245746346842, 1.0025113100038896, 1.1392106027165516, 0.614952962359277, 1.3018732714712837, -0.12185253873757619, 1.030058172456694, 3.3888473874239318, 3.0110504230291055, 0.6120757635327532, -0.6433992369998857, -0.5936824854876748, -1.8573601495539385, -1.3175863691893357, -0.5957283038574372, -1.056457906036115, -0.4252002940687047, 0.6128972055996665, 0.7613277770636111, 0.24621931548211495, -0.38557873438776974, -0.0635425403543588, 0.06526069335756182, 0.022676800409583118, 0.008700236185817072, -0.024052015186190063, -0.30746041451797895, -0.5755158986689054, 0.4498777871413316, 1.0618643379565784, 1.1472568118229305, 0.8954634510079321, 1.8396854628763615, 1.2408763188393674, 1.7324666775097362, 1.947651799096717, 0.4702232036671767, -0.8890990805994297, 0.06098193910470804, -0.44142400661993897, -2.0033253626334133, -0.9245857651443823, -0.09203169285082637, -0.8204364417199593, -0.5728071695548297, 0.8467051343275194, 0.3785447903679249, -0.42152206992348884, -0.5629491994470861, -0.14754475133499237, -0.034121269777519725, -0.011645047263324503, 0.0050382532333008235, 0.04445830074730349, 0.08454211657043055, -0.7628982692461701, 0.4017572528032317, -0.2290597270012241, -0.2284544273347071, 0.9793453152583511, 0.93124495065417, 0.43544823520235193, 1.4294234240620103, 0.4982800941458746, -0.7940366809844474, -1.3984565809352794, -0.662605624836438, 0.026273094423183648, -1.1688493481193793, -1.1352430724183207, -1.2531211467034342, -1.3424920750190716, 0.057704816141779046, 0.1301380140314203, 0.2609562171724122, 0.2836493492163875, -0.465311712314635, -0.2100229065374751, 0.0482647186134224, -0.048555525075285835, -0.022519727214324978, 0.03797135275209473, 0.0015247405043937966, -0.15260820449357507, -0.05450387594568972, -0.8606693141187217, -0.4349166509131585, 0.30822045235620044, 1.3063556518675974, 0.7671064239756932, 0.7439086546043602, 0.9211252481004131, -0.2557778207847003, -0.18731016366506115, -1.1010743907266625, -1.351795310936378, -1.6503865174672792, -1.3203237754977137, -1.933119485509764, -1.4960126441681074, -0.18652056837149616, -0.6924301339729015, 0.36159481995236303, -0.25730171314217876, -0.1855550092794659, -0.4225133228071494, 0.009960541073360165, -0.004508900206755966, -0.04737027960503891, 0.041405882589026013, -0.0008565673316928075, -0.061247479263473396, -0.666053753905266, -0.34607282680948237, -0.5192822836659693, 0.4247907304031259, 0.22442372407773467, -0.09794220710267847, 0.07969022780641255, 1.2185035238804411, 0.8893334235113373, 0.6638387895393277, -0.9632810530545923, -1.7021359741805457, -0.50519302270332, -0.8115742610131994, -1.5841800543747027, 0.9321111844724631, 0.11403453986918706, 0.1799683579198848, 0.32436825913954404, -0.10606046555883904, -0.523850073621338, -0.24367631444776852, 0.06869797641944385, 0.05887955132442257, 0.027441276269500072, -0.03141441648844443, 0.21059433974247868, -0.5410590000408598, -0.5198053201309937, -0.3946740152137829, 0.18374610753309095, -0.2075153420944354, -0.1566007161000855, -0.2302971159702104, -0.708005162810914, -0.028575577023310882, 1.061668831350219, -0.11311565435082936, -1.1730746550853475, 0.4380261305271344, 0.25221193136310827, -0.11569662617895057, -0.382676361079635, 2.5394314024350715, 0.4699398460238369, 1.130832539807248, 0.4948519322157536, 0.6484804068680569, -0.6408289024150547, -0.0762553838350954, -0.040289032336234765, 0.003761835929526355, -0.1088513579620592, 0.033923077936695994, 0.18391757359680855, -0.5012729184094538, -0.1267709909721198, -0.3987267709455422, -0.6323567197826084, 0.3489284120389674, 0.6322316592939151, 0.5358752395254024, 0.45192529560153, -0.6005558387076617, 0.4881716570141049, -0.5128723255518544, 0.031682546147899275, -0.6032871248475623, 0.04832233815286252, 0.20787264625751134, -0.6360667383643692, 2.1330835736731064, 0.40547102289994624, 0.6676220201937584, 0.658248541229144, 0.3162463730337202, -0.5249492152944624, -0.02853023218938346, -0.022332954944151336, 0.02213206192849889, -0.004675961311718819, 0.11393775598262952, 0.3197914965276562, -0.9156559798104096, -0.31286122920867004, -0.6190563411609451, -0.18243842760142714, -0.34918319884501176, -0.07179764587503382, 1.981026193663642, 0.6840541486435756, 0.8007334401972412, -0.18394008784196017, -0.6116292040180097, 0.21471058930251652, -0.8604891318291509, 0.46668490599585744, 1.7365802934803252, -0.40932811002790315, 0.20290407033671742, -0.02294390916496743, 0.6045685842223432, 0.24262292524192597, 0.1728357837963636, -0.2246258331538759, 0.05950934679331817, 0.011878076849751664, -0.005654051115245188, 0.014116772137367428, 0.1263924114988282, 0.3160611289952944, -0.6002070968140981, 0.06599698507518899, 0.05323355212848346, 0.3041733347944132, 0.1706971466660387, 0.23760407010027776, 0.3517757785960616, 0.4409658399271814, 1.9754560337416143, 0.7850448643640766, -0.8834987832183769, 0.3184647058695206, -0.5811662541163221, -0.15455054843032776, -0.2535379717896714, -0.35565819350739913, -0.47576698273585083, -0.022638718669953276, 0.5954102489152276, -0.48735134909463385, -0.7076980852091717, -0.3350798891201084, 0.012469623266820553, 0.00157242204492857, 0.03492716931529515, -0.02784931694478899, -0.05267222465393525, 0.0877464203237908, 0.829335724830609, 0.7599682484911832, 0.5317841203058729, -0.11983251011772425, 0.24785609697068958, 0.2484415078699689, 0.24827566929787384, -0.06717611712561962, 0.11488753674614079, -0.3908698149077888, 0.4352221623240403, 1.0387324947287824, -1.5886010049763215, -0.04908014681840475, -0.6885979360363449, -0.15598604583906864, -0.281398397726223, -0.742439121165564, 0.06465575248086047, -0.33235688668474267, -0.5580131836738277, -0.19997187787263584, -0.015858242433044335, 0.08784592098922868, -0.021343580515181083, -0.021286649046726426, -0.023909033650344507, 0.0733600462025858, 0.23967190006761266, 0.48250442745898664, 0.20937079900474806, -0.23917129393015743, 0.4066497269613954, 0.3549874975811613, 0.41972940074435244, 0.8288821741152788, 0.34531606207598997, 1.1693389574427777, 0.7524794424882635, -0.27241699062423863, -0.8670897571677498, -0.2355196787721399, -0.00975694357823036, 0.36165493110940283, -0.8040194021315942, -0.5935117570553946, -0.7354756982891453, -0.28775742332880583, -0.10054738055843374, -0.2490515959565282, 0.05627232413102136, -0.06894253843069462, 0.04150438366556704, 0.0007338254570755566, 0.0417225709251097, 0.034321346222251324, -0.3045918534086857, 0.4296251402984399, 0.3929118091790822, -0.40769833548037054, -0.3283308955254705, 0.5103119389998138, 0.6546175168103213, 0.5769803147106854, 0.6657361001809617, 0.489610524515722, -0.03576227692159418, -0.6531072569115076, 0.41559252511038797, -0.4937344485001687, -0.31198824931828484, 0.5974281350089387, -1.1047224424411854, -0.7984971558463972, -0.6809922219528526, -0.12728928877314094, -0.2656390765666558, -0.2050383353687594, -0.08016873836615906, 0.05188840051537153, -0.0018252536267952155, 0.01676853656615781, 0.02306542161329029, 0.039424868988549314, -0.5947619506389047, -0.9332237790894712, -0.8351556156389789, -0.5955106789104141, -0.045927523135721265, 1.1174205239675081, 0.3192974105463068, -1.3112255964962432, 0.5300922925764217, 1.7082330657857452, 0.9615659281269151, 0.5520104358862258, -0.013592699984992329, -0.8645185473430673, -0.21641855533076076, 0.25692111089321884, -0.5393078198479854, -0.8229379464695946, -0.4200450338492643, -0.14323111981757483, 0.016011571842508343, -0.14238158158261727, 0.019353907520437724, 0.004430793487904777, 0.012853601350017096, -0.04307803628403807, 0.015433473391595917, 0.04763456157124927, -0.2644013030003247, -0.8217140434596124, -0.6700707071566265, -0.5553200898106779, -0.9394028696195784, -0.8696880792821733, -0.3327845096266907, -0.7876755315709508, -0.12147831082352653, 0.6823125554573035, 0.14976621572481183, 0.5347546611007288, 0.032966247559101165, 0.0789839478110574, 0.06445106734878375, -0.23014620469691283, -0.6240498842920021, 0.014514482117284969, 0.2798800065562899, 0.35890461399287393, 0.25142515411256317, -0.007688812684096734, 0.011453049034261812, 0.06330538120415902, -0.014575805786820545, -0.007199259075990313, 0.0469317363206269, 0.013924745978445886, -0.03374897175297396, -0.15625780511335058, -0.28846258562055843, -0.20646927145119712, -0.4724524674976508, -0.6770786790259876, -0.9834811425138077, -0.28922144872691213, 0.041793694378386606, 0.07338919179296421, -0.5830398524769128, -0.6768984491825183, -0.4802053029667062, -0.17031543784521794, -0.10550217253775974, -0.08426393598418921, -0.3727503895496569, -0.34842826258456255, -0.0244358629806488, -0.00012293098518259101, 0.030355853341869153, -0.008524076158504314, -0.04538325875413135, 0.0644554931920176, 0.027539485997944844, -0.07381849784975648, -0.015369971508409607, 0.04551954165133933, -0.022082288813926793, 0.017220647430822144, 0.020395672023776967, -0.02376035285775683, 0.04081171145504606, 0.07160629250757693, -0.09823074653935088, -0.14839889111346427, -0.02017974799310952, 0.04692527472494268, -0.08966069001060228, -0.134210628161539, -0.04200237631593229, -0.12974683414361063, -0.13749992924978754, -0.02407831183794798, -0.01775488322746683, -0.024273674549603795, 0.028665130341406733, -0.05530400929078924, -0.04488762081602848, -0.020813593567211075, 0.07154705144690672, 0.08352257780611103], [-0.01990929359170024, 0.008740883624204268, 0.00027396290198136855, -0.03726323125695331, -0.033760770194958836, -0.017824437090673537, -0.010926990388886629, 0.05961208456901823, 0.0050731910220155945, -0.031933257015659425, 0.0236943325474949, -0.03879859118046703, 0.029751019680582427, -0.017956027575111253, 0.00976228926058129, 0.027390750870550762, 0.0030603563181785046, -0.023684724255060137, 0.046853139307941515, -0.03485986067801294, -0.038542706843008714, -0.07613050384062746, -0.005995937543627303, 0.024739597589819213, -0.036531406383296806, 0.01920672933717366, 0.010168323401089627, -0.044774363706422585, 0.03764992553067662, -0.0056802909306007355, 0.055390456475405914, -0.02744590536171022, 0.01850201104380704, 0.014332339683458142, 0.01451810533251236, 0.033989761852936694, 0.00039473585104113124, -0.00430068087214423, 0.060757627066887525, -0.08452518260340924, -0.26550292221829863, -0.08210637133953944, -0.05848123267669559, -0.13511672212110762, 0.22990965395867233, 0.1304493234360175, -0.10403297072205968, -0.35952297036889524, -0.15483354606962116, 0.005896946524138402, -0.019357844243095165, 0.033255558246244515, -0.06141618933267513, -0.045731034176996956, -0.03130703108489308, -0.07123859184504884, -0.0008392602332687123, 0.029821871983094366, -0.0066660941989385835, 0.0340127141556133, 0.0007289661513541362, -0.015073315717827059, -0.012654887719005378, 0.030541415035770535, -0.034572644102668346, -0.032410872073280056, 0.19169702963925916, 0.33798017602752645, -0.021388334594870682, 0.42034813293597206, 0.684390847527896, -0.17594071765805352, 0.033245860883398475, -0.10713780776336969, -0.3510835622366964, -0.3725513610112433, -0.16270780676954086, -0.2259977999358318, -0.09830292627192097, 0.07469460764024632, 0.04639164245375235, -0.0018022036571782643, 0.056096146630927005, 0.06908883075284127, 0.021821023938293296, 0.03169092591982235, -0.012663418574340017, 0.03966626683580812, 0.03801350320810686, -0.03645520132792873, -0.024408410351489395, -0.11240891781028639, 0.04958891013644957, 0.21710473424119942, 0.6509543930008382, 1.0876697916522877, 0.2998888557065432, 1.6310000439152375, 2.448730370459278, 0.835758459560225, 0.5695965794344318, 0.15373254171027784, -0.6346540984620789, -0.8104852514220383, -0.23010444857526108, -0.12008191065130884, 0.04052381991526498, 0.1211470059680408, 0.16538016248980061, 0.32861564294272927, 0.055260397447930425, 0.032223534802671094, -0.039915178732240694, -0.03734847112406379, -0.056332881434421535, 0.07578537261120309, -0.05738322419489161, -0.0642214609970564, -0.016145943205439623, -0.13436760459486255, 0.005792451461912671, 0.6333533726593832, 0.8678550515555539, 0.4169936753160933, 0.5463995306448279, -0.04216642882844383, 0.9890235452798296, 2.2145533795868526, 1.1135628085265643, 0.5830161579300055, 0.04340544453408092, -0.35826719754729336, -0.28378680973631737, -0.028708335303362004, 0.1499940559764915, -0.528117240683373, -0.03291009336519819, -0.3070961421436339, -0.044618319508616326, 0.020786171498454166, 0.00984380364063059, 0.049403380957489876, -0.02075678590109347, -0.007266454553513379, -0.34229436792403156, -0.21163182638453917, -0.1368405323519734, -0.058155921599250385, 0.37083278315451734, 0.9499558538419047, 1.5920387428891625, 1.6837789398487264, 1.479235939718837, 2.1783731781762268, 1.1817634711406266, -0.9085801844459633, 0.28609576358721855, 1.8624649041908339, 1.1820025482846348, 1.5147165136679281, -0.3936637269358376, -0.13625242878663607, -0.5704347901646131, -0.8962843526487513, -0.5300175377629126, 0.6690243331906262, 0.09535726707146464, 0.034131844404019895, -0.06613344492375207, -0.006985217173032553, -0.05566099339893079, -0.15256302162564647, -0.3665778066078724, 0.06071350017461914, 0.13753122458667807, 0.5593896066330238, 0.9018528234802576, 1.3431588070047313, 1.3512937225964685, 1.3872295396980214, 1.9350339472749465, 2.426770906830884, 0.6884956748091665, 0.6326251114180277, 1.218510465739864, 1.922545470496906, 0.6906711438126031, 0.6836458307374397, 0.41879864864917554, 0.9689493680841559, -0.19145888730822397, 0.2864090212702872, -0.1601550319555558, 0.4069137964307888, 0.28307630215771384, -0.022901387942533612, -0.019044710323665472, 0.05083693927407925, 0.0008195891918740402, 0.07848385684576673, -0.666733554920899, -0.5067659415715013, 0.24174485732602446, 0.896749882707834, 1.2498990901438196, 1.9128196664398958, 1.801152627985001, 0.3830610082731394, -0.3182726181795612, 1.5394896089767147, -0.5526299803333352, 0.590976097988907, 0.29388967477987626, 0.3873458771857851, 1.2194891359333366, -0.027469526191484944, 0.44807243231122584, 0.5587657206447885, -0.27863367261125027, 0.6445000468052454, -0.3997260405401056, -1.5781036837648448, 0.08797413311023995, 0.03889519008789591, -0.03185193288827813, 0.06988517041056234, 0.045103607977776836, -0.06840263553263301, -0.9482259651490117, -0.8943171778497533, -0.03213387134685572, 0.9617523172143612, 1.193039364697672, 1.373426411228471, 1.5583825130676783, 1.0490091591276725, 0.596508194906458, 0.3938230651902959, -0.8662162823971121, 0.7816863033843241, 0.017704188754952086, -1.9513488269307013, 0.4886447073705256, -0.8177404837759312, -1.6660991945781487, 0.21814108245494415, -0.2320991267055515, 0.5962349560378691, -0.48976167294023293, -0.8315229834388724, -0.12483439717622377, -0.06576844660115629, -0.02712324282058345, 0.07197758473454922, -0.04312000980049399, -0.1156672519855481, -1.121979510229256, -0.8450951255583384, -0.14933545344765894, 0.6634434626403557, 1.3166364790470095, 1.0451778552744242, 0.9257771844979115, 1.3279098695824618, 1.4848251229515312, -1.3853336455896013, 0.08087359236467236, -1.015959328556879, -2.0856355902693045, -1.260130786991557, -0.1663568014919857, -0.2534766679352625, -0.36259129436200993, -0.35959697339725605, -0.28796632245132425, 0.5876891966023046, -0.6466527489791408, -0.421587865850634, -0.2220946899881207, -0.10126304625186135, -0.001637529281820385, 0.06215835456338907, -0.10426004683977705, 0.055647457338868216, -0.6378917744355497, -0.16255374019443142, 0.7514777522067602, 0.4147256811869899, 0.729160129699686, 0.49359831252405756, 0.44443154251489564, 1.0472642692045255, 0.27939357577265095, -1.005345264660841, -0.5940063628638869, -2.488155907818991, -1.8080748491540897, 0.54491675797504, 1.1482470641939784, 0.18141499790829252, -0.04549677866234009, 0.17688767054099958, 0.1365227305890237, -0.5064501897473799, -1.2683093561584866, -1.4248559389419309, -0.547139863506352, -0.03011117853876648, 0.03707218511526985, 0.028481786934430823, 0.15421375546193022, 0.1313253854280315, -0.36461084541265393, 0.4406823444226948, 0.8180172759960077, 1.1382837672407997, 0.4666074490587628, 1.3138365384039736, 1.487358417080528, -0.08598928024616072, -1.2775526302348779, -0.8938373982668856, -0.3210209493485265, -1.2074499113186925, -0.4913361950307052, 0.6398954877023199, 0.7891534655679945, 0.9461638796844801, 0.7980045223487379, -1.0604463802484008, -0.7212456720930157, -1.5985056925823338, -1.8780210581467043, -0.49938714628502895, -0.3458150726423702, -0.0454638705233047, 0.0006171783380374562, 0.050769712556002745, 0.16998554470650187, -0.019048717081284975, -0.5389783801190106, 0.7142022388036342, 1.0552176486653075, -0.336839505749425, 0.16859036238892608, 0.1433601003278144, 2.0427946415628906, 1.0265567892081697, -1.1723094900117184, -0.6958566597089245, -1.419291004347099, -1.076708316384296, -0.3798655220022829, 0.15691546025287328, 0.8878534340808839, -0.15164436642160292, 1.5102077947732013, 0.2897152590906878, -0.12211075685499005, -0.20423279871557742, 0.3821167801483847, 0.1252366627967334, -0.06109826729237774, -0.01028525766360959, -0.036686607162948304, 0.03629669298476912, 0.0070097173816490175, -0.09323720606215581, -0.35941600958240355, 0.3303908072440521, 1.060376291530376, -0.5506087467158892, -1.0823156476047773, -0.4065729222503095, 1.173532574689483, -0.9087285230031272, -1.1979851641591184, -1.0107307703120076, 0.425780725504203, 1.3528726485004048, 0.280420556643257, 0.16472401053679345, 1.0017098277515892, 1.1895962288655737, 1.9863119524289092, 0.9646103809559362, 0.7091351731987474, 0.3881271235760956, 0.7151820305067136, 0.25522322708705864, 0.15036059505562832, 0.11878832001066121, -0.03729691607055522, -0.03192929550681225, -0.056984627350558884, -0.2572657992654462, -0.06951041297461914, 0.5189134358881438, 0.7267074927719299, 0.469905384280754, -0.5297708642883535, -0.9165746374514142, 1.3157073532723742, -0.20721727092523703, -0.6236457571783548, -1.0000975765610047, 0.3874729879032831, 0.6410792917915097, -0.7258480924938613, 0.735219438508306, 0.7485169227394501, 1.0255632259127758, 0.5884805791016986, 1.3134583974759215, 1.1156809540069423, 1.059334179507943, 0.21372270345036617, 0.2587067466997774, 0.09658966574567997, -0.0012374390448959185, -0.017283068672584292, 0.020588384871993146, -0.11025392555919697, 0.1264800124204001, 0.18002496505170085, 0.18763148135770424, 0.4624005119860397, -0.4137728515535565, -0.14602899278804857, 0.07259008242487197, 1.1247638771438506, 0.4723172782600394, 0.5240274583143819, 0.14009805092098315, 1.173717563592835, 0.9700456130755727, -0.48564766597545345, -0.30747202360775994, 0.059909469194378326, 0.7213429333962815, 1.5631464900995324, 1.7732116712044241, 1.1776396477991202, 0.7464394819892282, 0.3637883787259635, 0.30997717476688247, 0.13284368174004568, -0.008370503997233027, -0.006412233663690032, 0.06549876311671876, -0.024227208885433366, 0.2432623225364617, 0.3203411810844869, -1.1682909576430223, 0.1584314848521346, 0.3978826668760767, 0.08513385784028969, 1.1777181230300862, 0.21598294720551714, -0.4736082248134852, 0.5735925546036718, -0.19000335383828748, 0.4664147469109795, 0.43200624490442213, -0.7959890469460271, 0.12535913970451415, 0.35153207434878225, 0.7564493063582908, 1.2695776651015085, 0.9176854051885928, 0.5348605600471075, 0.4195894767534847, 0.1548481949151919, 0.36322264384029523, 0.12127669378036919, -0.005394129749713281, 0.027347193735953273, 0.009190946927755732, 0.10040185634520414, 0.5166369958007744, 0.8776553378824594, -0.43555957154290054, -0.16700850259020023, 1.0963974563059027, 1.093098128878886, 0.5863394423888952, 0.49579882546388987, 0.8755959276975257, 0.13288123615178601, 0.04730702856883557, -0.21682230019384302, 1.4912376371815248, -0.14320167617147866, -0.9293802914558981, 0.31824882697034285, 0.023754882598247633, 0.5118333075696511, 0.706692768888372, 0.7243602992277046, 0.4856392875437816, 0.33891368725791793, 0.227883370578909, 0.1290198104777811, -0.06049915684705862, 0.019112987058172652, 0.009126974412515724, -0.029296818978028633, 0.7517175423401814, 0.9479047923523515, 0.9797597924346776, 1.0661642490846144, 0.6623260568786403, 0.10267673947744234, -0.7596398232611833, 0.4686262837004381, 0.6970163036724243, -1.8521010641360982, -0.02501134220658083, -1.0492847570009851, -1.2463394695607757, -0.13502842058605552, -0.5430259985248417, -0.458466636403115, -0.4534085637061957, 0.5546521628023668, 1.4132744031974076, 1.3822423327274098, 0.9920371793761442, 0.44374605571289943, -0.1482781407165149, -0.07118536530316415, -0.020867635955771808, -0.03154981531334834, -0.013896785986030674, -0.08351816589226643, 0.6782142797026209, 0.9554268346828191, 1.1669846080623978, 0.3842093138020791, -0.47571388920675217, -0.6007474404333233, -0.5649722573922266, 0.027915809134185628, -1.1146683959901305, -1.673859848159628, -1.3598610551785693, -1.927351567660148, 0.1543977484139698, -0.6450540694707714, -0.02048811799596795, -0.15538673114291576, -0.5913115398835314, 0.7663948633595001, 1.2293023764694375, 1.084822413646519, 0.6597258993007322, 0.24824774393798413, 0.022976168646608404, -0.022210194424548562, -0.0464557546520741, 0.020296037166119687, -0.002618100021202451, 0.03797134785702833, 0.41914565016371397, 0.987678324871493, 0.3729023338480795, -0.30506472162678, -0.42124233732546035, -0.5186615171081531, 1.111446365550928, 0.08281912875730034, 1.0139668853742108, 0.6523270040817867, 0.3162010513175041, -1.748014828766645, 0.22809621228719926, 0.35339532103033916, 0.6559217948358275, -0.10812525366033292, 0.058720647869497385, 0.7017463417747137, 0.9635587125271554, 0.514618013605855, 0.4409672476767818, 0.21848255857087084, 0.18855624585511724, -0.00920409194142096, 0.08300896855745749, 0.02495584909431283, -0.01004872421930692, 0.08034049240160956, 0.043418431665985004, 0.5602177482764841, 0.16575424542429668, 0.16867173728541973, -1.214846277212125, -0.4159894148661226, -0.5199754053180242, -1.0711353782101298, 0.7243471585051914, 0.8125362322362714, 0.5633587019338413, -1.0020980032551783, -0.14435471045206974, 1.3639781967677675, 0.6540474900365888, -0.25351645693231284, 0.8957514606427011, 0.7354015039908017, 0.2683074393173344, 0.07126186272359598, -0.05468554038799449, -0.12488226724312632, 0.0648468736986837, 0.01022343804234015, -0.02053231445077376, -0.039578421951558404, -0.022857709770936624, -0.006093920950507094, 0.09837016557691822, 0.2116309603502667, 0.048361971803899756, 0.04787351401820752, 0.13710573949742966, -0.5312715447740609, -0.5858710827546303, 0.6961609052127709, 1.41439562401281, 0.0076963366914492145, 0.34806166543100125, 0.9589061024788472, 0.20637891413942894, -0.6891037956049689, 0.5269566337898216, 0.4949565592679201, 1.1307245906876116, 0.6552321016043557, -0.0009522543356435666, -0.1418363194161371, -0.14675441739630873, 0.0378859709904301, -0.09383848542939759, 0.06615186504588119, 0.025114440775827394, 0.004674755292974507, -0.022951234225755988, -0.0022443034862720747, 0.22782012310233618, 0.21632012890783298, -0.6989495004128223, 1.1589447848797334, 0.024486402115764208, 0.25046203435627823, -0.5020719931508071, 0.1502512417044413, -0.051752848046298615, -1.1414747477517893, 0.42138527468552467, 0.5704649341340853, -0.578819761529922, 0.30836289541512985, 0.5374814243976095, 0.010816454162695808, 1.212376572037995, 0.5227968571928275, 0.36782636210570235, 0.12681878101543556, -0.02838280614654829, -0.0031211916006011376, -0.06200382589606243, -0.05886700116368917, 0.010420276741265649, -0.007011300912466091, 0.018973629201492946, -0.06608053264093044, 0.10194761358550161, -5.1565161425013024e-05, -0.44705871752209275, 0.5591802827100891, 0.09003498266455995, 0.5747049587266408, 0.9171628305589931, 1.3418577571279968, 1.4280667272721606, 1.413952879829828, 1.029325369899629, -0.3216551904979027, -0.5606596962490761, -0.1876052443143091, -0.6381452664609015, -0.09719925058743628, 0.6246353317108906, 0.31040425010282086, 0.19173083640284894, 0.12563311354033216, 0.054760147380336, 0.045069217141363346, -0.005289593451159455, -0.02854408610182203, -0.012186059610657291, 0.010782336897015733, 0.08834547221929279, 0.020116054196395526, 0.041033461833935594, -0.2680548874038351, -0.43201719513800535, -0.2794638469909919, -0.023140920779099353, 0.23921134428718185, 0.4579849801990209, 1.257901176537683, 0.5296357846500126, 1.040374983346319, -0.5238022733925528, -1.1116860185663553, -0.08580858935286163, -1.2713756987075484, -1.2113781538980526, -0.010667377509831771, 0.13005177874151264, 0.18847983908261745, -0.03364074067638458, 0.00775911007215846, 0.08589811592987444, -0.011688513919706043, 0.0012424994759967123, -0.0028380499305591714, -0.0732197809377995, 0.008924154492425302, -0.062332966653586556, 0.01720719587210169, 0.018576734368764277, -0.001485468097543177, -0.28194027757384066, -0.24783432235954733, 0.22218189539489805, 0.26264747918752346, 0.4366114560650025, 0.40818258015165365, -0.4222235944615016, -0.7920225986222172, 0.2534986333826691, 0.17563840802799185, -0.2486296379877771, -0.6317567548428394, -0.4060827476555547, 0.1366466022085861, -0.13904671687046047, -0.007562304736792734, -0.035510138621101736, 0.008350720493591094, 0.018772634765121237, -0.008748119357598573, 0.03264843443606774, 0.023564295075252987, -0.06503091932000775, -0.06048021390664408, 0.02482849796193805, -0.023292583306238037, -0.0016754255570408812, -0.000586136547592399, -0.04991366488610334, -0.012499109006533511, -0.03004732932417036, -0.06259327997080487, -0.0308112348367675, -0.3620961389183884, -0.2561780955593344, -0.04837111165483853, 0.06573742043063488, -0.2480515021557216, -0.36057697227394975, -0.03580730687183869, -0.08737669063848456, -0.028228050809258467, -0.0179742310130945, 0.008049288530689317, 0.007702257241715628, 0.009497969134230623, 0.002839015159106348, 0.032922763181657516, 0.03757631554520443, 0.0031828748431614326, 0.0342085473842242], [-0.02240633752815798, 0.005274496025701236, 0.018430580973869463, -0.0413769771667371, -0.04071958985804278, -0.004158747985999109, -0.03647808515922211, -0.0409667246328325, -0.0003633205525759276, 0.08623637019854528, 0.04246058444558747, -0.009945396521563335, 0.06815135140833611, 0.028851542648679413, 0.003941876123063161, -0.010607726673743935, 0.05120381607959168, -0.023337116007988403, 0.01648003602850821, -0.07325918776609497, 0.010992436050721973, -0.014979747249216389, -0.03380046068581237, -0.03365094790245959, -0.013805021860285776, 0.039182188467433564, -0.01161679709814968, -0.014117055119034458, -0.005062711711692966, -0.009743695381464593, 0.055164261696126024, -0.0334380268405857, -0.022554578904280444, -0.06983452365320118, -0.02833852014828619, 0.030990341690075283, 0.02741693225122303, 0.03208389683377842, 0.011149878199935705, 0.00810177484088732, 0.06582309442560587, 0.018761100742597164, 0.10191885392827951, 0.22532524952490726, 0.08856601915152902, -0.003942125921272812, 0.09009670472343496, 0.27463640892732605, 0.17320721459771504, 0.4260854209854033, 0.3496602448445297, 0.03782772864946335, -0.0960768000293635, -0.01212738911005515, 0.014826368720859785, -0.052376705751426854, 0.02545046971678467, -0.058409722019095785, -0.0015173663927344067, 0.028343677169415805, 0.08353230338209192, 0.07308097569271707, 0.0183289521699808, 0.016281992845821713, 0.1926107123230102, 0.37968093950351783, 0.48797227589236, 0.4470150709487168, -0.06310831391722199, -0.13763894452902903, 0.6310445207960778, 0.07759330771810528, 0.4412326535771344, 0.8946684085111553, 0.42168335830420267, 0.8427769158074212, 0.9129429652132702, 0.8362340775737579, 0.8180128575211293, 0.2086947868882612, 0.05602696470422754, -0.025817260488738024, 0.004162659530565886, -0.021388337291390946, -0.046407512976933456, -0.03401080493765239, 0.0005218979966402075, 0.09936604631725049, 0.04778407333896062, -0.03543826917483427, 0.3873386313623145, 0.40783210755147925, 0.5116164035276349, 1.114855879402562, 0.9387063996918797, 1.5175430677740875, 1.6645851503877087, 2.6800085967922, 1.3092337374226446, 1.1318252926950843, 1.5814220505507013, 1.4815166355122467, 1.950144106423369, 2.4101496420212847, 2.02237905216773, 1.4877074880795909, 0.6146853926782012, 0.0568406466370613, -0.2774642781713391, 0.021877950481541703, 0.05773719363670851, -0.01364162694030484, -0.016442237330387164, -0.020338410085670035, -0.007457213821093183, 0.05876151488465933, 0.1732583485371248, 0.4225376788855585, 0.5880720794876023, 0.21840203523523843, 0.5318768281544205, 0.6029141721821221, 1.1776217893213627, 0.5903928422279391, -0.06720878171073325, 0.09458120258667413, 0.2281929082601133, 0.784950689715981, 0.6921559078388893, 0.23544126847377206, 0.9264334300341099, 1.0607680367140404, 0.8756458636858307, -0.25100581869976935, -0.9188775205541593, -0.7362663661626939, -0.5085120094762793, -0.035352493945393075, 0.0032575912014190154, 0.019117141968354782, 0.06194066729081542, 0.01839469213039086, 0.04116905248876776, 0.09546894908880714, 0.6242147894313348, 0.31720236352940273, 0.34782369570256233, 1.0477326881837274, 0.38551891576319597, 0.5255624379117979, 1.3210762050071736, -0.6103617898331984, -0.42699901989235134, -0.24751029061895213, -2.2351048968842155, -0.4238161702416764, 0.111494537252811, -0.8038852932360413, -0.8239455834120181, -0.6646932711726053, -0.6390223081155825, -1.0829504843112763, -2.2068227510338434, -1.294807291550151, -0.3055471874633197, -0.06180740318095019, 0.0006124232298260802, -0.03703867741537508, 0.01672800882931832, 0.06646622861320421, -0.014632234087750981, 0.2522017145639891, 0.7554673589658756, -0.1391999106105628, 0.4508131802609508, 0.4296324589284527, -1.167750009630584, 1.1203783553358677, 1.247923958652424, 0.5863495318211842, -0.046532510104687334, 1.4796382937377082, 0.12609004074916105, -0.032273617502702426, -0.6153203286918671, 0.09274122326857535, -0.5497071742107227, -2.187622669795759, -0.9640524012926054, -0.7086652340858275, -1.1167042960396913, -1.4901361242607873, -0.601553575272322, -0.29762695047151905, -0.06485345466056883, 0.01682050258659777, 0.026748973001203623, 0.07606436887231585, -0.09631611335379202, 0.3253995243187284, 0.5260741198247412, -0.7072817872494879, 0.07526372144353251, 1.1414780143342897, -0.18540481788994692, 0.9415490493398584, 1.3489258815574878, 0.6567263684372305, 2.9926180132700573, 1.340962237186999, 0.2969561754307283, 0.08926764670313536, -0.6720848072016123, -0.6344706822719738, 0.14041785960533468, -0.3430945818036692, -0.622390065006479, 0.023601113504444656, -0.7034047388415363, -1.3561255515522534, -0.806820655777286, -0.5485860328250558, -0.11171310926125617, 0.008663676575756025, 0.0007794317297287297, 0.007206461558924748, 0.042833878246544166, 0.5052368195879406, 0.9357443815517866, 0.021309076136323754, 0.21609119055241524, -0.33123126094876276, 0.23677067699388982, 0.2556941934362997, 1.0478396395322196, -1.303104087785713, 0.6768719820805102, 0.6547056633880828, 1.3643666197926145, -0.7149972589990423, -0.5380887708962979, -0.6256579643922429, -0.8339472809359388, -1.3373523408341073, -0.6426603727682373, 0.015774424325561583, 0.17099167305127477, -1.700851657121106, -1.8377442833156434, -0.8705643789995053, -0.08866238145259908, -0.04838329822992574, 0.05102611235096625, 0.0248207497157574, 0.0017525852222533827, 0.6393381887307046, 1.2879547889125376, 1.1632818628029098, 1.042277757147886, -0.6574414109461229, -0.18846787622194072, 1.334419993486357, 0.09436408635628409, 0.26854622055625776, 1.9873897304512302, 1.9133295461453244, 3.6004470614484885, 0.7821636152283824, 0.26483870785358876, -0.29041917793821415, -1.2450851146456814, -1.8659081685150003, -0.5656257205191884, -2.043180884866274, 0.4763586377445813, -0.973111748723909, -1.2563682094240822, -0.5092521529473953, -0.11168515490280102, 0.2704018647217089, -0.027732462742550944, 0.06204367289002147, -0.21064005530543575, 0.1407284536232928, 0.2663663005596127, 1.7606339281340522, 1.2305968573456794, -0.4145825834280202, 0.20017022643118304, -0.07072265247790013, -1.1334559585083672, -1.3478347084728657, -1.839082175807705, 0.06123474649565193, -0.9027068779262826, -0.9048783834132452, -0.1916597038189317, 0.3322654721618572, -0.987856354850225, -0.521992229731682, -0.44249557490230434, -0.5949613115657834, -0.6795850826932367, -0.534448347288032, -0.34956339393605923, -0.38904862376772364, -0.10469616040353089, 0.03766976513313461, -0.017430708830143426, 0.03474852369918066, -0.3262368905575151, -0.2914398228999914, 0.7044493474143385, 0.9909525366551083, -0.8678958106904492, -0.7352726432845057, -1.3361148575260249, -1.1831914983828977, -2.199759768930079, -2.1747183419425635, -2.494649386487429, -1.5867720566774524, -0.49130624860303895, -1.043529417150801, 0.07286287134284841, 1.5358893643821503, 1.1721385166514389, 0.4565742753089992, 1.8983743109788462, 0.8018221986571321, -0.3311708296789153, -0.8395201167664744, -0.5385764348953757, -0.7303837745357162, -0.36587269367046366, 0.0018761378527528145, -0.00776887503009706, 0.000910237755455328, -0.1928658615067263, 0.28644695584804114, 0.742091422980198, -0.24037834767438807, -1.1112558689847853, -1.0903181738043746, -1.5570537684866566, -1.4510266145031696, -0.7169621203931457, -0.08396039433609352, -1.1911022129168796, -0.9109474698218627, 0.5803528454911298, 1.404835785884551, 1.252298823724526, 0.7950921195425237, 1.3138500649838343, -1.1489121538834324, -0.2876196383220703, 0.5473416066537761, -0.258339152912983, -0.6719652389984979, -0.7256225941384459, -0.5390786725805878, -0.6078684892181445, 0.03154652195648301, -0.05029908614903119, -0.007986644495137769, 0.047347622353664416, 0.8288915091353012, 1.3884731516421376, -1.251815052110904, -0.7802686866178282, -1.2881941151892464, -2.13747455873791, -0.9821039748572722, -0.06326052558268094, -1.3048712338814858, -0.9640124317360196, -0.17639834400390253, 0.5152793062923323, 0.6227008252555004, 0.12254818470343087, 0.8120313065714825, 0.20273779910441123, -1.6724324612867212, -0.9085333749995284, 0.9509902761609629, 0.5798831112381959, 0.7131088010147074, 0.38341992993915197, -1.0662985592189995, -0.7601159838411533, -0.04115433220868039, -0.01703500182459537, 0.018193892036371204, 0.06345190765584115, 0.3846310783903517, 0.05530326727734949, -1.7236466278090934, -0.18087205446936686, -1.05343237035197, -0.5753946071561893, -0.2791847119751514, -0.1626988865781172, -1.1441420728452305, 0.4945907832648054, -0.14908457890920335, 0.6267044366098312, -0.061951390892474624, 1.3560446908701635, -0.6599288059586679, 0.8218688959851163, 0.6226827890700753, 0.5101976208091134, 0.43408346428350775, 0.2573665825781463, 1.108311928706732, -0.5915423161198675, -1.0008959413277538, 0.018797179703888396, 0.006192831273091985, 0.013508978488026506, 0.08011516100752084, -0.04328601408597766, 0.0572837594015795, -1.2648210886888063, -1.376972185198261, 0.49014008917336316, -0.7112957980273198, -0.3615007944803476, 0.3360279361930261, 0.12988542942626355, -0.20524682608102537, -0.25086853146499205, 0.4643911233448915, 0.1535002905766446, -0.7958276989983646, -0.07502513163294523, 0.22167844626144134, 0.5241515721019032, 0.7230814213106255, 0.8142944214226125, 0.6082890805033145, 1.104113304166304, -0.22919575148317406, -0.0013750375205298059, -0.269806526425075, 0.02561834351348597, -0.0442156330890981, -0.016759713855686583, 0.026292805654216034, -0.22798420212923382, -0.06515149201391404, -0.19078196875111886, 0.001044747056949056, 0.4901229178645608, -1.2522305114946901, 0.32379204478615475, -0.4333951043295119, -0.12938196909449012, 0.3575554902159348, -0.11352106248020787, 0.601289382367299, 0.9738576874577362, -0.29742976969704443, -0.9659940958488252, -1.4572780867651822, 1.4619684147827685, 0.7133825333951895, 0.31914125502797264, 1.0360869134900461, 1.4259905561591333, -0.5529739699060675, 0.5062337453567317, 0.4348158647014698, 0.14095382786217084, -0.023967120167417727, -0.012254765541953313, 0.04067413768678608, -0.16793827781553355, -0.284732622460628, 0.27262472331349236, 0.4946874886866584, 0.8106797869668144, -0.10474024802400012, 0.11857107229657123, -1.6081564049452608, -1.1747864985840102, 1.1415283046544473, 0.32308701512441573, 0.4508663426574265, -1.7130387440146195, 0.23487036953493798, 0.1972389869591506, 0.49172572024998873, 0.7396010475260175, 0.6553475077161083, 0.32855067240096336, 1.0392160874898313, 0.8556882017459067, 0.3474958319930271, 0.48067301527307266, 0.6657350173138361, 0.26414146389382304, 0.008893123097948038, -0.013914136506411877, -0.08276527971052901, -0.041652568453915635, 0.11343176038650495, 0.1037727076647569, 0.44269343769262076, -0.6672209633905934, 0.6616129884400447, 0.608883047000272, -1.2663868679015353, -0.3682678059096186, 1.0284558777901147, -0.05394073201697648, -0.5722292981798353, -0.6015662408312642, 1.0230095830033434, 1.1080437448475902, 1.3848446958597305, 1.220572205959701, 0.5531554636472876, -0.5452441924416384, 0.45585977591647614, 1.0367469513733647, 0.7909376969823174, 0.21890890429296087, 0.5878315839867165, 0.0267189953052682, -0.0031637352516430723, 0.06720669473885979, -0.053930682515021165, -0.0072252699439622654, 0.4433297545479248, 0.1681375992693614, -0.08708452602605406, -1.015285031686569, 0.5872104633472478, 0.10608308981832987, 0.6513348263842733, -0.09844290758428485, 1.5141385197826254, 0.7238193143343685, -0.02820659182248558, 0.19938743197999745, -0.6648063880393443, -0.3028503760099877, 0.15816056950915025, 0.2138055387485719, 0.13662681539888363, 0.2119550284336028, -0.9449860937487184, -0.03718259709013906, 0.9192972683918378, 0.05832504928149216, 0.21498401458458316, -0.021403561499031262, 0.018293857084626174, 0.006604339248889813, 0.04775139270293733, 0.0022283792592988324, 0.29585815207104715, 0.478866345468634, -0.22865929717057798, -1.0484663338168534, 0.03250846895840242, 1.2822289080869655, 1.7694408923034481, 0.3732638219393252, -0.03199903673092399, 0.7218863536381184, -0.1777593549155565, 1.0573405951113117, 0.29084732468166324, 0.6045084103294392, -0.18893513800378414, -0.14952284621360645, 0.17321370473970502, -0.15857604948482074, -0.497030533783893, -0.6664043001685107, -0.68988878451474, 0.37983481826168314, -0.026929181565593437, 0.13295372691247662, 0.03271244474771629, 0.018852248665033235, 0.012315662914761306, -0.10866144294998813, 0.1254346911199777, -0.030252933204737535, -0.14807236802753956, 0.6518632118780918, 1.2182761663833335, 0.7784313613516334, -0.25742415003668156, -0.14296662225628975, -0.8467648462476268, 1.231572506554299, -0.365609409464723, 1.0584131740457223, 0.028618305077947714, 0.16563385650301432, 0.7093395108342729, -1.1644900367592397, -0.5276586891201364, -0.3978610279092962, -1.212631559888598, -1.44514145266447, -1.8121217774104814, -0.4651074330921757, -0.2527304701236946, 0.05313637932881202, -0.0201061531208681, 0.04805272632329168, -0.003726862208896632, -0.04788669262453553, -0.11356232021451179, 0.21783091822197304, 1.3841790958326434, 1.69679780179688, 0.2800771073855968, -0.7558752876440253, -0.5261828351509062, 1.1557622613340257, -0.48809763877963963, 0.6759918237719603, 0.9963494468420948, -0.21498233381878282, -0.43636112157815404, -2.0677611169245615, -1.2127268928201806, -0.4924151510059272, -0.8769119410482574, 0.6035003101286449, -1.5428000028137583, -1.522628244802951, -1.6972043777451473, -0.9099804863063451, -0.312042321417607, 0.007806849190697685, 0.05163360723011866, 0.03308507995032395, -0.013994953342612996, -0.01727350797765894, 0.03841409583284542, 0.7521622545815349, 1.8946809192766516, 2.150345646545786, 0.3435978901677425, -1.5237869268219417, -0.7455180308905577, 0.12768465411047625, 0.13631400546717753, -0.8172880834752371, -1.9888859087136541, -1.5947834046930625, -0.32079958140251286, -1.3091104474274506, -0.9334855841006973, -0.3606975130225948, -0.9625699342863747, -0.8286665190347359, -1.3842648767270629, -0.49223036939354314, -0.9069860442201816, -0.3891522437255161, -0.28675319230251045, -0.006516351156833243, -0.011491474348508625, -0.029926195440414922, -0.010446478952601146, 0.1338800119523858, 0.21662756118013668, 0.8435415769169862, 1.1483567283624332, 1.5198748664806825, 1.1415251527087933, -0.6023115643118152, -0.1595760276618358, -0.10227310805977627, -0.674511648678181, -0.6762421566875437, 1.0106802612006096, 1.4208303005526886, 1.9175018412940812, 0.8496864264249953, 0.9849854920563748, 0.6031528595448227, 0.32620185773653226, 0.3990943718845727, -0.4093032595029761, -0.056945949616472556, -0.10284211752262688, -0.12118133105264801, -0.07020097773256978, -0.007584203272085409, 0.02660352337541408, 0.03350134917709303, 0.03933247383029952, 0.03492723815057927, 0.0002904207647937539, 0.38538269307513867, 0.46028287376775806, -0.6980941594013492, -0.38563242172144074, 0.06619280464581559, 0.6224242027257454, 0.6374916320437287, -0.18972746234235288, 1.0841767487153977, 0.5787114550623835, 1.0269882737136151, -0.43612466993228055, 0.40902015169344963, 1.5483076497097048, 1.401249471285734, 0.8675360686847333, 0.7487151046139058, 0.5936513638672587, 0.15872059484762635, 0.10535431298020835, 0.016934028206069585, 0.016548744665671744, -0.01692920113592411, -0.06142038395276021, 0.06378935714133606, -0.016229183213033457, 0.04695542392156593, -0.011267966014928184, -0.017473103171802472, -0.16198594079011427, -0.13335611874864436, 0.24140417407219444, 0.1214352275466212, 0.4407861433420863, 0.7591194381939073, 0.6158172938260411, 0.6636201018687962, 0.6632744385678602, 1.154831276353672, 0.5140318255891637, 0.9410278237836159, 0.6773563944583075, 1.3199233340076175, 1.7509413226383914, 1.065007778768474, 0.6176371595534985, 0.11050501860126757, 0.07481587493281067, 0.05089180746033764, -0.02158785906825736, 0.04216270397401595, -0.014404002126468902, -0.025766838862177576, 0.04534837412326972, 0.021502505576055073, 0.0677389637560458, 0.005396776757128787, 0.0266172739733619, 0.012710942413563821, 0.03968037571577582, -0.0075930281470625105, 0.057325893791924, 0.33207128077100506, 0.16976906923102034, 0.0919477930250869, 